{"learner":{"attributes":{},"feature_names":["disp_last","disp_1h_mean","disp_1h_std","pore_kpa","vibration_g","slope_deg","aspect_deg","curvature","roughness","precip_mm_1h","temp_c"],"feature_types":["float","float","float","float","float","float","float","float","float","float","float"],"gradient_booster":{"model":{"gbtree_model_param":{"num_parallel_tree":"1","num_trees":"200"},"iteration_indptr":[0,1,2,3,4,5,6,7,8,9,10,11,12,13,14,15,16,17,18,19,20,21,22,23,24,25,26,27,28,29,30,31,32,33,34,35,36,37,38,39,40,41,42,43,44,45,46,47,48,49,50,51,52,53,54,55,56,57,58,59,60,61,62,63,64,65,66,67,68,69,70,71,72,73,74,75,76,77,78,79,80,81,82,83,84,85,86,87,88,89,90,91,92,93,94,95,96,97,98,99,100,101,102,103,104,105,106,107,108,109,110,111,112,113,114,115,116,117,118,119,120,121,122,123,124,125,126,127,128,129,130,131,132,133,134,135,136,137,138,139,140,141,142,143,144,145,146,147,148,149,150,151,152,153,154,155,156,157,158,159,160,161,162,163,164,165,166,167,168,169,170,171,172,173,174,175,176,177,178,179,180,181,182,183,184,185,186,187,188,189,190,191,192,193,194,195,196,197,198,199,200],"tree_info":[0,0,0,0,0,0,0,0,0,0,0,0,0,0,0,0,0,0,0,0,0,0,0,0,0,0,0,0,0,0,0,0,0,0,0,0,0,0,0,0,0,0,0,0,0,0,0,0,0,0,0,0,0,0,0,0,0,0,0,0,0,0,0,0,0,0,0,0,0,0,0,0,0,0,0,0,0,0,0,0,0,0,0,0,0,0,0,0,0,0,0,0,0,0,0,0,0,0,0,0,0,0,0,0,0,0,0,0,0,0,0,0,0,0,0,0,0,0,0,0,0,0,0,0,0,0,0,0,0,0,0,0,0,0,0,0,0,0,0,0,0,0,0,0,0,0,0,0,0,0,0,0,0,0,0,0,0,0,0,0,0,0,0,0,0,0,0,0,0,0,0,0,0,0,0,0,0,0,0,0,0,0,0,0,0,0,0,0,0,0,0,0,0,0,0,0,0,0,0,0],"trees":[{"base_weights":[-3.508104E-1,-1.2194374E0,1.5914568E0,-3.6948305E-1,1.0011213E0],"categories":[],"categories_nodes":[],"categories_segments":[],"categories_sizes":[],"default_left":[0,0,0,0,0],"id":0,"left_children":[1,3,-1,-1,-1],"loss_changes":[2.5606139E4,2.547041E2,0E0,0E0,0E0],"parents":[2147483647,0,0,1,1],"right_children":[2,4,-1,-1,-1],"split_conditions":[8.5935E1,1.3375124E-1,1.5914568E0,-3.6948305E-1,1.0011213E0],"split_indices":[3,2,0,0,0],"split_type":[0,0,0,0,0],"sum_hessian":[5.2099546E3,4.516995E3,6.929594E2,4.5056875E3,1.1307385E1],"tree_param":{"num_deleted":"0","num_feature":"11","num_nodes":"5","size_leaf_vector":"1"}},{"base_weights":[-4.134954E-1,-3.479765E-1,1.8535697E0,-3.0045438E-1,1.8701365E0,1.3907498E0,5.6303555E-1,5.8037204E-1,3.3276892E-1],"categories":[],"categories_nodes":[],"categories_segments":[],"categories_sizes":[],"default_left":[0,0,0,0,0,0,0,0,0],"id":1,"left_children":[1,-1,3,-1,5,7,-1,-1,-1],"loss_changes":[7.8839326E3,0E0,5.6460205E1,0E0,1.0488281E0,8.4895325E-1,0E0,0E0,0E0],"parents":[2147483647,0,0,2,2,4,4,5,5],"right_children":[2,-1,4,-1,6,8,-1,-1,-1],"split_conditions":[3.49897E-1,-3.479765E-1,2.3157623E-1,-3.0045438E-1,2.223781E0,9E-3,5.6303555E-1,5.8037204E-1,3.3276892E-1],"split_indices":[0,0,1,0,0,9,0,0,0],"split_type":[0,0,0,0,0,0,0,0,0],"sum_hessian":[4.656722E3,3.5036436E3,1.1530786E3,6.309225E0,1.1467694E3,1.8561684E1,1.1282076E3,4.328422E0,1.4233261E1],"tree_param":{"num_deleted":"0","num_feature":"11","num_nodes":"9","size_leaf_vector":"1"}},{"base_weights":[-3.942142E-1,-3.3382535E-1,1.4773096E0,-2.7829683E-1,1.4898441E0,9.725093E-1,4.496397E-1,4.3560693E-1,2.2543293E-1],"categories":[],"categories_nodes":[],"categories_segments":[],"categories_sizes":[],"default_left":[0,0,0,0,0,0,0,0,0],"id":2,"left_children":[1,-1,3,-1,5,7,-1,-1,-1],"loss_changes":[5.004586E3,0E0,3.2507812E1,0E0,3.3024902E0,1.0641403E0,0E0,0E0,0E0],"parents":[2147483647,0,0,2,2,4,4,5,5],"right_children":[2,-1,4,-1,6,8,-1,-1,-1],"split_conditions":[1.4995E1,-3.3382535E-1,2.3157623E-1,-2.7829683E-1,2.223781E0,9E-3,4.496397E-1,4.3560693E-1,2.2543293E-1],"split_indices":[3,0,1,0,0,9,0,0,0],"split_type":[0,0,0,0,0,0,0,0,0],"sum_hessian":[3.7193267E3,2.6878008E3,1.0315259E3,4.96985E0,1.026556E3,1.9331757E1,1.0072243E3,4.3430343E0,1.4988723E1],"tree_param":{"num_deleted":"0","num_feature":"11","num_nodes":"9","size_leaf_vector":"1"}},{"base_weights":[-3.7979913E-1,-3.2415548E-1,1.2944613E0,-2.5882655E-1,1.3052697E0,7.214397E-1,3.9521983E-1,3.6668584E-1,1.6107386E-1],"categories":[],"categories_nodes":[],"categories_segments":[],"categories_sizes":[],"default_left":[0,0,0,0,0,0,0,0,0],"id":3,"left_children":[1,-1,3,-1,5,7,-1,-1,-1],"loss_changes":[3.3989775E3,0E0,2.1059326E1,0E0,5.076294E0,1.1488695E0,0E0,0E0,0E0],"parents":[2147483647,0,0,2,2,4,4,5,5],"right_children":[2,-1,4,-1,6,8,-1,-1,-1],"split_conditions":[3.49897E-1,-3.2415548E-1,2.3157623E-1,-2.5882655E-1,8.5935E1,9E-3,3.9521983E-1,3.6668584E-1,1.6107386E-1],"split_indices":[0,0,1,0,3,9,0,0,0],"split_type":[0,0,0,0,0,0,0,0,0],"sum_hessian":[2.8950266E3,2.0411216E3,8.5390497E2,3.8641028E0,8.500409E2,1.853191E1,8.31509E2,3.475298E0,1.5056612E1],"tree_param":{"num_deleted":"0","num_feature":"11","num_nodes":"9","size_leaf_vector":"1"}},{"base_weights":[-3.692487E-1,-3.173811E-1,1.1865507E0,3.340943E-1,3.639025E-1,-2.5157127E-1,5.911534E-1,3.1589857E-1,1.2968382E-1],"categories":[],"categories_nodes":[],"categories_segments":[],"categories_sizes":[],"default_left":[0,0,0,0,0,0,0,0,0],"id":4,"left_children":[1,-1,3,5,-1,-1,7,-1,-1],"loss_changes":[2.3814558E3,0E0,1.4978638E1,7.101239E0,0E0,0E0,9.0661335E-1,0E0,0E0],"parents":[2147483647,0,0,2,2,3,3,6,6],"right_children":[2,-1,4,6,-1,-1,8,-1,-1],"split_conditions":[2.3157623E-1,-3.173811E-1,8.5935E1,1.3375124E-1,3.639025E-1,-2.5157127E-1,9E-3,3.1589857E-1,1.2968382E-1],"split_indices":[1,0,3,2,0,0,9,0,0],"split_type":[0,0,0,0,0,0,0,0,0],"sum_hessian":[2.2204534E3,1.5393613E3,6.810919E2,2.0912891E1,6.601791E2,3.35333E0,1.755956E1,3.0539522E0,1.4505609E1],"tree_param":{"num_deleted":"0","num_feature":"11","num_nodes":"9","size_leaf_vector":"1"}},{"base_weights":[-3.6135197E-1,-3.1253365E-1,1.1154395E0,2.6538748E-1,3.4412143E-1,-2.324368E-1,4.608133E-1,2.7993315E-1,9.547792E-2],"categories":[],"categories_nodes":[],"categories_segments":[],"categories_sizes":[],"default_left":[0,0,0,0,0,0,0,0,0],"id":5,"left_children":[1,-1,3,5,-1,-1,7,-1,-1],"loss_changes":[1.6977543E3,0E0,1.4028259E1,4.5088854E0,0E0,0E0,9.028897E-1,0E0,0E0],"parents":[2147483647,0,0,2,2,3,3,6,6],"right_children":[2,-1,4,6,-1,-1,8,-1,-1],"split_conditions":[1.4995E1,-3.1253365E-1,8.5935E1,1.3375124E-1,3.4412143E-1,-2.324368E-1,9E-3,2.7993315E-1,9.547792E-2],"split_indices":[3,0,3,2,0,0,9,0,0],"split_type":[0,0,0,0,0,0,0,0,0],"sum_hessian":[1.6874058E3,1.1553682E3,5.320376E2,1.9424564E1,5.1261304E2,2.6033432E0,1.6821222E1,2.6142418E0,1.420698E1],"tree_param":{"num_deleted":"0","num_feature":"11","num_nodes":"9","size_leaf_vector":"1"}},{"base_weights":[-3.5515904E-1,-3.0901185E-1,1.0641943E0,2.1121663E-1,3.3090788E-1,-2.1248364E-1,3.6155528E-1,2.518974E-1,7.0313975E-2],"categories":[],"categories_nodes":[],"categories_segments":[],"categories_sizes":[],"default_left":[0,0,0,0,0,0,0,0,0],"id":6,"left_children":[1,-1,3,5,-1,-1,7,-1,-1],"loss_changes":[1.2232579E3,0E0,1.340213E1,2.90488E0,0E0,0E0,8.4480524E-1,0E0,0E0],"parents":[2147483647,0,0,2,2,3,3,6,6],"right_children":[2,-1,4,6,-1,-1,8,-1,-1],"split_conditions":[1.132E-2,-3.0901185E-1,8.5935E1,1.3375124E-1,3.3090788E-1,-2.1248364E-1,9E-3,2.518974E-1,7.0313975E-2],"split_indices":[4,0,3,2,0,0,9,0,0],"split_type":[0,0,0,0,0,0,0,0,0],"sum_hessian":[1.2748846E3,8.642307E2,4.106539E2,1.8161463E1,3.9249243E2,2.0306227E0,1.6130838E1,2.212145E0,1.39186945E1],"tree_param":{"num_deleted":"0","num_feature":"11","num_nodes":"9","size_leaf_vector":"1"}},{"base_weights":[-3.4999013E-1,-3.0640563E-1,1.0240371E0,1.6935378E-1,3.2172534E-1,-1.9175172E-1,2.8481767E-1,2.2860901E-1,1.7219125E-1,3.6742173E-2,6.905967E-2],"categories":[],"categories_nodes":[],"categories_segments":[],"categories_sizes":[],"default_left":[0,0,0,0,0,0,0,0,0,0,0],"id":7,"left_children":[1,-1,3,5,-1,-1,7,-1,9,-1,-1],"loss_changes":[8.873592E2,0E0,1.2879486E1,1.8726869E0,0E0,0E0,7.576697E-1,0E0,1.4121681E-2,0E0,0E0],"parents":[2147483647,0,0,2,2,3,3,6,6,8,8],"right_children":[2,-1,4,6,-1,-1,8,-1,10,-1,-1],"split_conditions":[2.3157623E-1,-3.0640563E-1,8.5935E1,1.3375124E-1,3.2172534E-1,-1.9175172E-1,9E-3,2.2860901E-1,1.757611E2,3.6742173E-2,6.905967E-2],"split_indices":[1,0,3,2,0,0,9,0,6,0,0],"split_type":[0,0,0,0,0,0,0,0,0,0,0],"sum_hessian":[9.5980493E2,6.449388E2,3.1486615E2,1.7109678E1,2.9775647E2,1.5712736E0,1.5538404E1,1.8659862E0,1.3672418E1,9.0377E0,4.634718E0],"tree_param":{"num_deleted":"0","num_feature":"11","num_nodes":"11","size_leaf_vector":"1"}},{"base_weights":[-3.452372E-1,-3.0443144E-1,9.895352E-1,1.3932449E-1,3.151506E-1,-1.7191076E-1,2.292126E-1,2.0801069E-1,1.2968491E-1,2.7116558E-2,5.3036455E-2],"categories":[],"categories_nodes":[],"categories_segments":[],"categories_sizes":[],"default_left":[0,0,0,0,0,0,0,0,0,0,0],"id":8,"left_children":[1,-1,3,5,-1,-1,7,-1,9,-1,-1],"loss_changes":[6.464771E2,0E0,1.2386078E1,1.2410498E0,0E0,0E0,6.5397006E-1,0E0,1.0840476E-2,0E0,0E0],"parents":[2147483647,0,0,2,2,3,3,6,6,8,8],"right_children":[2,-1,4,6,-1,-1,8,-1,10,-1,-1],"split_conditions":[3.49897E-1,-3.0443144E-1,2.223781E0,1.3375124E-1,3.151506E-1,-1.7191076E-1,9E-3,2.0801069E-1,1.757611E2,2.7116558E-2,5.3036455E-2],"split_indices":[0,0,0,2,0,0,9,0,6,0,0],"split_type":[0,0,0,0,0,0,0,0,0,0,0],"sum_hessian":[7.2126746E2,4.804893E2,2.4077815E2,1.633024E1,2.2444792E2,1.2274837E0,1.51027565E1,1.6131401E0,1.3489616E1,8.945601E0,4.5440154E0],"tree_param":{"num_deleted":"0","num_feature":"11","num_nodes":"11","size_leaf_vector":"1"}},{"base_weights":[-3.4054592E-1,-3.0288947E-1,9.565343E-1,1.102514E-1,3.1022403E-1,1.7254478E-1,2.9634995E-2,6.859961E-2,-1.0823112E-2,5.163089E-3,3.147325E-2],"categories":[],"categories_nodes":[],"categories_segments":[],"categories_sizes":[],"default_left":[0,0,0,0,0,0,0,0,0,0,0],"id":9,"left_children":[1,-1,3,5,-1,-1,7,9,-1,-1,-1],"loss_changes":[4.7199603E2,0E0,1.2040588E1,6.07566E-1,0E0,0E0,4.154037E-2,1.671014E-2,0E0,0E0,0E0],"parents":[2147483647,0,0,2,2,3,3,6,6,7,7],"right_children":[2,-1,4,6,-1,-1,8,10,-1,-1,-1],"split_conditions":[1.4995E1,-3.0288947E-1,8.5935E1,9E-3,3.1022403E-1,1.7254478E-1,6.160603E-1,3.054352E0,-1.0823112E-2,5.163089E-3,3.147325E-2],"split_indices":[3,0,3,9,0,0,8,5,0,0,0],"split_type":[0,0,0,0,0,0,0,0,0,0,0],"sum_hessian":[5.4175055E2,3.575392E2,1.8421133E2,1.5665885E1,1.6854546E2,1.4085689E0,1.4257316E1,8.922617E0,5.3346987E0,4.304564E0,4.618053E0],"tree_param":{"num_deleted":"0","num_feature":"11","num_nodes":"11","size_leaf_vector":"1"}},{"base_weights":[-3.3505696E-1,-3.0163166E-1,9.241059E-1,1.0614818E-1,3.0643514E-1,1.4792897E-1,3.984535E-2,2.7114077E-2,-1.2348455E-2],"categories":[],"categories_nodes":[],"categories_segments":[],"categories_sizes":[],"default_left":[0,0,0,0,0,0,0,0,0],"id":10,"left_children":[1,-1,3,5,-1,-1,7,-1,-1],"loss_changes":[3.4572116E2,0E0,1.1232651E1,3.9762068E-1,0E0,0E0,6.501419E-2,0E0,0E0],"parents":[2147483647,0,0,2,2,3,3,6,6],"right_children":[2,-1,4,6,-1,-1,8,-1,-1],"split_conditions":[2.3157623E-1,-3.0163166E-1,2.223781E0,9E-3,3.0643514E-1,1.4792897E-1,4.8804317E0,2.7114077E-2,-1.2348455E-2],"split_indices":[1,0,0,9,0,0,5,0,0],"split_type":[0,0,0,0,0,0,0,0,0],"sum_hessian":[4.0746332E2,2.660298E2,1.4143352E2,1.5264108E1,1.2616941E2,1.2912483E0,1.3972859E1,8.533595E0,5.4392643E0],"tree_param":{"num_deleted":"0","num_feature":"11","num_nodes":"9","size_leaf_vector":"1"}},{"base_weights":[-3.2889196E-1,-3.0052775E-1,8.873979E-1,9.271028E-2,3.0329794E-1,1.5325716E-1,2.935302E-2,-2.4807942E-3,4.523123E-2,2.053617E-2,5.147541E-3],"categories":[],"categories_nodes":[],"categories_segments":[],"categories_sizes":[],"default_left":[0,0,0,0,0,0,0,0,0,0,0],"id":11,"left_children":[1,-1,3,5,-1,-1,7,-1,9,-1,-1],"loss_changes":[2.5301462E2,0E0,1.0735657E1,4.073201E-1,0E0,0E0,9.277484E-3,0E0,5.758954E-3,0E0,0E0],"parents":[2147483647,0,0,2,2,3,3,6,6,8,8],"right_children":[2,-1,4,6,-1,-1,8,-1,10,-1,-1],"split_conditions":[1.132E-2,-3.0052775E-1,8.5935E1,9E-3,3.0329794E-1,1.5325716E-1,-2.036705E-3,-2.4807942E-3,6.160603E-1,2.053617E-2,5.147541E-3],"split_indices":[4,0,3,9,0,0,7,0,8,0,0],"split_type":[0,0,0,0,0,0,0,0,0,0,0],"sum_hessian":[3.0707086E2,1.97814E2,1.0925687E2,1.4940855E1,9.431601E1,1.0365677E0,1.3904287E1,4.268818E0,9.635469E0,4.486036E0,5.149434E0],"tree_param":{"num_deleted":"0","num_feature":"11","num_nodes":"11","size_leaf_vector":"1"}},{"base_weights":[-3.2142398E-1,-2.994809E-1,8.4597594E-1,8.3430484E-2,3.0055422E-1,1.22108966E-1,3.3728987E-2,2.2254477E-3,4.354233E-2,1.7211E-2,7.2077294E-3],"categories":[],"categories_nodes":[],"categories_segments":[],"categories_sizes":[],"default_left":[0,0,0,0,0,0,0,0,0,0,0],"id":12,"left_children":[1,-1,3,5,-1,-1,7,-1,9,-1,-1],"loss_changes":[1.8510379E2,0E0,1.0153149E1,2.3890509E-1,0E0,0E0,3.4742411E-3,0E0,1.456948E-3,0E0,0E0],"parents":[2147483647,0,0,2,2,3,3,6,6,8,8],"right_children":[2,-1,4,6,-1,-1,8,-1,10,-1,-1],"split_conditions":[3.49897E-1,-2.994809E-1,2.223781E0,3.8E-2,3.0055422E-1,1.22108966E-1,-2.036705E-3,2.2254477E-3,6.160603E-1,1.7211E-2,7.2077294E-3],"split_indices":[0,0,0,9,0,0,7,0,8,0,0],"split_type":[0,0,0,0,0,0,0,0,0,0,0],"sum_hessian":[2.3219547E2,1.470705E2,8.512497E1,1.4707761E1,7.041721E1,1.000987E0,1.3706774E1,4.2005324E0,9.506242E0,4.4288244E0,5.0774174E0],"tree_param":{"num_deleted":"0","num_feature":"11","num_nodes":"11","size_leaf_vector":"1"}},{"base_weights":[-3.1240195E-1,-2.9840225E-1,7.9885244E-1,7.503707E-2,2.9789782E-1,8.671707E-2,4.0119495E-2,3.467755E-3,1.5167179E-2],"categories":[],"categories_nodes":[],"categories_segments":[],"categories_sizes":[],"default_left":[0,0,0,0,0,0,0,0,0],"id":13,"left_children":[1,-1,3,5,-1,-1,7,-1,-1],"loss_changes":[1.3533917E2,0E0,9.489532E0,1.0405686E-1,0E0,0E0,3.7281401E-3,0E0,0E0],"parents":[2147483647,0,0,2,2,3,3,6,6],"right_children":[2,-1,4,6,-1,-1,8,-1,-1],"split_conditions":[2.3157623E-1,-2.9840225E-1,8.5935E1,2.539E1,2.9789782E-1,8.671707E-2,-2.5054931E-3,3.467755E-3,1.5167179E-2],"split_indices":[1,0,3,10,0,0,7,0,0],"split_type":[0,0,0,0,0,0,0,0,0],"sum_hessian":[1.7645776E2,1.0939679E2,6.706098E1,1.4476094E1,5.2584885E1,1.0096147E0,1.3466479E1,4.168331E0,9.298148E0],"tree_param":{"num_deleted":"0","num_feature":"11","num_nodes":"9","size_leaf_vector":"1"}},{"base_weights":[-3.0159584E-1,-2.971867E-1,7.4328303E-1,6.331037E-2,2.9514155E-1,2.3048835E-2,9.557401E-3],"categories":[],"categories_nodes":[],"categories_segments":[],"categories_sizes":[],"default_left":[0,0,0,0,0,0,0],"id":14,"left_children":[1,-1,3,5,-1,-1,-1],"loss_changes":[9.8647095E1,0E0,8.869795E0,4.0747486E-3,0E0,0E0,0E0],"parents":[2147483647,0,0,2,2,3,3],"right_children":[2,-1,4,6,-1,-1,-1],"split_conditions":[1.4995E1,-2.971867E-1,2.223781E0,6.160603E-1,2.9514155E-1,2.3048835E-2,9.557401E-3],"split_indices":[3,0,0,8,0,0,0],"split_type":[0,0,0,0,0,0,0],"sum_hessian":[1.349968E2,8.13825E1,5.3614292E1,1.4339304E1,3.927499E1,9.019678E0,5.3196263E0],"tree_param":{"num_deleted":"0","num_feature":"11","num_nodes":"7","size_leaf_vector":"1"}},{"base_weights":[-2.8902435E-1,-2.9574668E-1,6.8030035E-1,4.9188886E-2,2.9203314E-1,2.1499317E-2,2.2369844E-3],"categories":[],"categories_nodes":[],"categories_segments":[],"categories_sizes":[],"default_left":[0,0,0,0,0,0,0],"id":15,"left_children":[1,-1,3,5,-1,-1,-1],"loss_changes":[7.170346E1,0E0,8.198671E0,1.3713878E-2,0E0,0E0,0E0],"parents":[2147483647,0,0,2,2,3,3],"right_children":[2,-1,4,6,-1,-1,-1],"split_conditions":[2.3157623E-1,-2.9574668E-1,8.5935E1,4.8804317E0,2.9203314E-1,2.1499317E-2,2.2369844E-3],"split_indices":[1,0,3,5,0,0,0],"split_type":[0,0,0,0,0,0,0],"sum_hessian":[1.04167816E2,6.0593346E1,4.3574474E1,1.4190784E1,2.9383688E1,8.75722E0,5.433564E0],"tree_param":{"num_deleted":"0","num_feature":"11","num_nodes":"7","size_leaf_vector":"1"}},{"base_weights":[-2.7386966E-1,-2.939632E-1,6.134352E-1,4.0663444E-2,2.8838456E-1,5.3994814E-3,1.4409037E-2],"categories":[],"categories_nodes":[],"categories_segments":[],"categories_sizes":[],"default_left":[0,0,0,0,0,0,0],"id":16,"left_children":[1,-1,3,5,-1,-1,-1],"loss_changes":[5.213128E1,0E0,7.345457E0,1.6481429E-3,0E0,0E0,0E0],"parents":[2147483647,0,0,2,2,3,3],"right_children":[2,-1,4,6,-1,-1,-1],"split_conditions":[1.132E-2,-2.939632E-1,2.223781E0,-2.036705E-3,2.8838456E-1,5.3994814E-3,1.4409037E-2],"split_indices":[4,0,0,7,0,0,0],"split_type":[0,0,0,0,0,0,0],"sum_hessian":[8.1258255E1,4.519407E1,3.6064186E1,1.4048506E1,2.201568E1,4.2906384E0,9.757868E0],"tree_param":{"num_deleted":"0","num_feature":"11","num_nodes":"7","size_leaf_vector":"1"}},{"base_weights":[-2.5593475E-1,-2.9170337E-1,5.420801E-1,3.11794E-2,2.8395095E-1,5.524937E-3,1.0369741E-2],"categories":[],"categories_nodes":[],"categories_segments":[],"categories_sizes":[],"default_left":[0,0,0,0,0,0,0],"id":17,"left_children":[1,-1,3,5,-1,-1,-1],"loss_changes":[3.7827583E1,0E0,6.480324E0,9.769574E-6,0E0,0E0,0E0],"parents":[2147483647,0,0,2,2,3,3],"right_children":[2,-1,4,6,-1,-1,-1],"split_conditions":[3.49897E-1,-2.9170337E-1,8.5935E1,-2.036705E-3,2.8395095E-1,5.524937E-3,1.0369741E-2],"split_indices":[0,0,3,7,0,0,0],"split_type":[0,0,0,0,0,0,0],"sum_hessian":[6.4244225E1,3.3737904E1,3.0506319E1,1.3954693E1,1.6551626E1,4.2762756E0,9.678416E0],"tree_param":{"num_deleted":"0","num_feature":"11","num_nodes":"7","size_leaf_vector":"1"}},{"base_weights":[-2.3528849E-1,-2.8882873E-1,4.7116414E-1,2.5109239E-2,2.7853227E-1,1.137106E-2,4.2814086E-4],"categories":[],"categories_nodes":[],"categories_segments":[],"categories_sizes":[],"default_left":[0,0,0,0,0,0,0],"id":18,"left_children":[1,-1,3,5,-1,-1,-1],"loss_changes":[2.7492018E1,0E0,5.557891E0,4.454228E-3,0E0,0E0,0E0],"parents":[2147483647,0,0,2,2,3,3],"right_children":[2,-1,4,6,-1,-1,-1],"split_conditions":[2.3157623E-1,-2.8882873E-1,2.223781E0,4.8804317E0,2.7853227E-1,1.137106E-2,4.2814086E-4],"split_indices":[1,0,0,5,0,0,0],"split_type":[0,0,0,0,0,0,0],"sum_hessian":[5.1611477E1,2.524868E1,2.6362799E1,1.3879154E1,1.2483644E1,8.621086E0,5.2580686E0],"tree_param":{"num_deleted":"0","num_feature":"11","num_nodes":"7","size_leaf_vector":"1"}},{"base_weights":[-2.1239121E-1,-2.8514463E-1,4.0251055E-1,1.9210368E-2,2.719179E-1,2.6070513E-3,6.775434E-3],"categories":[],"categories_nodes":[],"categories_segments":[],"categories_sizes":[],"default_left":[0,0,0,0,0,0,0],"id":19,"left_children":[1,-1,3,5,-1,-1,-1],"loss_changes":[2.0000061E1,0E0,4.672449E0,3.2958947E-4,0E0,0E0,0E0],"parents":[2147483647,0,0,2,2,3,3],"right_children":[2,-1,4,6,-1,-1,-1],"split_conditions":[1.4995E1,-2.8514463E-1,8.5935E1,-2.036705E-3,2.719179E-1,2.6070513E-3,6.775434E-3],"split_indices":[3,0,3,7,0,0,0],"split_type":[0,0,0,0,0,0,0],"sum_hessian":[4.2224277E1,1.8941864E1,2.3282412E1,1.3813042E1,9.46937E0,4.222895E0,9.590147E0],"tree_param":{"num_deleted":"0","num_feature":"11","num_nodes":"7","size_leaf_vector":"1"}},{"base_weights":[-1.8788627E-1,-2.804963E-1,3.3941555E-1,1.545824E-2,2.639502E-1,-7.3151814E-4,6.8761464E-3],"categories":[],"categories_nodes":[],"categories_segments":[],"categories_sizes":[],"default_left":[0,0,0,0,0,0,0],"id":20,"left_children":[1,-1,3,5,-1,-1,-1],"loss_changes":[1.4600106E1,0E0,3.8358793E0,2.027742E-3,0E0,0E0,0E0],"parents":[2147483647,0,0,2,2,3,3],"right_children":[2,-1,4,6,-1,-1,-1],"split_conditions":[2.3157623E-1,-2.804963E-1,2.223781E0,-2.036705E-3,2.639502E-1,-7.3151814E-4,6.8761464E-3],"split_indices":[1,0,0,7,0,0,0],"split_type":[0,0,0,0,0,0,0],"sum_hessian":[3.5255447E1,1.4267523E1,2.0987925E1,1.3765006E1,7.222918E0,4.2486787E0,9.516328E0],"tree_param":{"num_deleted":"0","num_feature":"11","num_nodes":"7","size_leaf_vector":"1"}},{"base_weights":[-1.6284879E-1,-2.7469027E-1,2.8354055E-1,3.7456232E-3,2.5456312E-1],"categories":[],"categories_nodes":[],"categories_segments":[],"categories_sizes":[],"default_left":[0,0,0,0,0],"id":21,"left_children":[1,-1,3,-1,-1],"loss_changes":[1.0701647E1,0E0,3.093767E0,0E0,0E0],"parents":[2147483647,0,0,2,2],"right_children":[2,-1,4,-1,-1],"split_conditions":[3.49897E-1,-2.7469027E-1,8.5935E1,3.7456232E-3,2.5456312E-1],"split_indices":[0,0,3,0,0],"split_type":[0,0,0,0,0],"sum_hessian":[3.0074194E1,1.0803726E1,1.9270468E1,1.3713594E1,5.5568748E0],"tree_param":{"num_deleted":"0","num_feature":"11","num_nodes":"5","size_leaf_vector":"1"}},{"base_weights":[-1.3837107E-1,-2.6753247E-1,2.3445816E-1,9.466504E-3,2.4375601E-1,3.302441E-3,1.6500928E-3],"categories":[],"categories_nodes":[],"categories_segments":[],"categories_sizes":[],"default_left":[0,0,0,0,0,0,0],"id":22,"left_children":[1,-1,3,5,-1,-1,-1],"loss_changes":[7.85371E0,0E0,2.463167E0,2.9254938E-5,0E0,0E0,0E0],"parents":[2147483647,0,0,2,2,3,3],"right_children":[2,-1,4,6,-1,-1,-1],"split_conditions":[1.132E-2,-2.6753247E-1,2.223781E0,6.160603E-1,2.4375601E-1,3.302441E-3,1.6500928E-3],"split_indices":[4,0,0,8,0,0,0],"split_type":[0,0,0,0,0,0,0],"sum_hessian":[2.621564E1,8.2176695E0,1.7997969E1,1.3687093E1,4.3108764E0,8.577563E0,5.1095295E0],"tree_param":{"num_deleted":"0","num_feature":"11","num_nodes":"7","size_leaf_vector":"1"}},{"base_weights":[-1.15271285E-1,-2.5901803E-1,1.9428955E-1,8.004966E-3,2.3174745E-1,3.8534086E-3,-2.3470433E-4],"categories":[],"categories_nodes":[],"categories_segments":[],"categories_sizes":[],"default_left":[0,0,0,0,0,0,0],"id":23,"left_children":[1,-1,3,5,-1,-1,-1],"loss_changes":[5.80528E0,0E0,1.9363136E0,6.331065E-4,0E0,0E0,0E0],"parents":[2147483647,0,0,2,2,3,3],"right_children":[2,-1,4,6,-1,-1,-1],"split_conditions":[2.3157623E-1,-2.5901803E-1,8.5935E1,4.8804317E0,2.3174745E-1,3.8534086E-3,-2.3470433E-4],"split_indices":[1,0,3,5,0,0,0],"split_type":[0,0,0,0,0,0,0],"sum_hessian":[2.3342796E1,6.308302E0,1.7034494E1,1.365045E1,3.3840454E0,8.5046625E0,5.1457872E0],"tree_param":{"num_deleted":"0","num_feature":"11","num_nodes":"7","size_leaf_vector":"1"}},{"base_weights":[-9.4551176E-2,-2.4895222E-1,1.6018246E-1,2.229625E-1,-7.4991086E-3,-4.297577E-4,-3.179251E-3],"categories":[],"categories_nodes":[],"categories_segments":[],"categories_sizes":[],"default_left":[0,0,0,0,0,0,0],"id":24,"left_children":[1,-1,3,-1,5,-1,-1],"loss_changes":[4.28946E0,0E0,1.6988051E0,0E0,2.56265E-4,0E0,0E0],"parents":[2147483647,0,0,2,2,4,4],"right_children":[2,-1,4,-1,6,-1,-1],"split_conditions":[1.4995E1,-2.4895222E-1,2.675E1,2.229625E-1,6.606604E1,-4.297577E-4,-3.179251E-3],"split_indices":[3,0,10,0,6,0,0],"split_type":[0,0,0,0,0,0,0],"sum_hessian":[2.11915E1,4.8716846E0,1.6319815E1,2.8786256E0,1.344119E1,5.0384226E0,8.402767E0],"tree_param":{"num_deleted":"0","num_feature":"11","num_nodes":"7","size_leaf_vector":"1"}},{"base_weights":[-7.6453984E-2,-2.3772855E-1,1.3382064E-1,2.0615739E-4,2.0746599E-1,1.0961305E-3,-1.5488795E-3],"categories":[],"categories_nodes":[],"categories_segments":[],"categories_sizes":[],"default_left":[0,0,0,0,0,0,0],"id":25,"left_children":[1,-1,3,5,-1,-1,-1],"loss_changes":[3.2030048E0,0E0,1.248564E0,2.8760452E-4,0E0,0E0,0E0],"parents":[2147483647,0,0,2,2,3,3],"right_children":[2,-1,4,6,-1,-1,-1],"split_conditions":[2.3157623E-1,-2.3772855E-1,2.223781E0,4.8804317E0,2.0746599E-1,1.0961305E-3,-1.5488795E-3],"split_indices":[1,0,0,5,0,0,0],"split_type":[0,0,0,0,0,0,0],"sum_hessian":[1.957081E1,3.8144064E0,1.5756403E1,1.3518244E1,2.2381592E0,8.426733E0,5.091511E0],"tree_param":{"num_deleted":"0","num_feature":"11","num_nodes":"7","size_leaf_vector":"1"}},{"base_weights":[-6.1334133E-2,-2.2526056E-1,1.1184016E-1,1.9938894E-1,-1.0502047E-2,-1.1930268E-3,-4.0726606E-3],"categories":[],"categories_nodes":[],"categories_segments":[],"categories_sizes":[],"default_left":[0,0,0,0,0,0,0],"id":26,"left_children":[1,-1,3,-1,5,-1,-1],"loss_changes":[2.393773E0,0E0,1.1114337E0,0E0,2.3392937E-4,0E0,0E0],"parents":[2147483647,0,0,2,2,4,4],"right_children":[2,-1,4,-1,6,-1,-1],"split_conditions":[3.49897E-1,-2.2526056E-1,2.675E1,1.9938894E-1,6.606604E1,-1.1930268E-3,-4.0726606E-3],"split_indices":[0,0,10,0,6,0,0],"split_type":[0,0,0,0,0,0,0],"sum_hessian":[1.8343462E1,3.0125139E0,1.5330949E1,1.9749248E0,1.3356024E1,5.011036E0,8.344988E0],"tree_param":{"num_deleted":"0","num_feature":"11","num_nodes":"7","size_leaf_vector":"1"}},{"base_weights":[-4.8728954E-2,-2.1211833E-1,9.481017E-2,1.7982142E-1,-5.2605346E-3,-8.1965973E-4,-2.7322893E-3],"categories":[],"categories_nodes":[],"categories_segments":[],"categories_sizes":[],"default_left":[0,0,0,0,0,0,0],"id":27,"left_children":[1,-1,3,-1,5,-1,-1],"loss_changes":[1.8061469E0,0E0,8.106379E-1,0E0,1.14559836E-4,0E0,0E0],"parents":[2147483647,0,0,2,2,4,4],"right_children":[2,-1,4,-1,6,-1,-1],"split_conditions":[2.3157623E-1,-2.1211833E-1,2.675E1,1.7982142E-1,1.757611E2,-8.1965973E-4,-2.7322893E-3],"split_indices":[1,0,10,0,6,0,0],"split_type":[0,0,0,0,0,0,0],"sum_hessian":[1.740398E1,2.4126444E0,1.4991335E1,1.6552292E0,1.3336106E1,9.079318E0,4.256788E0],"tree_param":{"num_deleted":"0","num_feature":"11","num_nodes":"7","size_leaf_vector":"1"}},{"base_weights":[-3.9032105E-2,-1.9880347E-1,8.094978E-2,-6.16974E-3,1.730298E-1,-8.9043984E-4,-2.2694687E-3],"categories":[],"categories_nodes":[],"categories_segments":[],"categories_sizes":[],"default_left":[0,0,0,0,0,0,0],"id":28,"left_children":[1,-1,3,5,-1,-1,-1],"loss_changes":[1.3777528E0,0E0,6.8309665E-1,4.1733845E-5,0E0,0E0,0E0],"parents":[2147483647,0,0,2,2,3,3],"right_children":[2,-1,4,6,-1,-1,-1],"split_conditions":[1.132E-2,-1.9880347E-1,8.5935E1,6.606604E1,1.730298E-1,-8.9043984E-4,-2.2694687E-3],"split_indices":[4,0,3,6,0,0,0],"split_type":[0,0,0,0,0,0,0],"sum_hessian":[1.6695787E1,1.9640143E0,1.4731773E1,1.3370082E1,1.3616917E0,5.0071387E0,8.362943E0],"tree_param":{"num_deleted":"0","num_feature":"11","num_nodes":"7","size_leaf_vector":"1"}},{"base_weights":[-3.0916981E-2,-1.8506972E-1,6.9592185E-2,1.6371232E-1,-8.399817E-3,-1.3880738E-3,-2.9772683E-3],"categories":[],"categories_nodes":[],"categories_segments":[],"categories_sizes":[],"default_left":[0,0,0,0,0,0,0],"id":29,"left_children":[1,-1,3,-1,5,-1,-1],"loss_changes":[1.0520703E0,0E0,5.810437E-1,0E0,3.6464655E-5,0E0,0E0],"parents":[2147483647,0,0,2,2,4,4],"right_children":[2,-1,4,-1,6,-1,-1],"split_conditions":[1.132E-2,-1.8506972E-1,2.675E1,1.6371232E-1,6.606604E1,-1.3880738E-3,-2.9772683E-3],"split_indices":[4,0,10,0,6,0,0],"split_type":[0,0,0,0,0,0,0],"sum_hessian":[1.6134085E1,1.6099745E0,1.452411E1,1.2002162E0,1.3323894E1,4.995436E0,8.328458E0],"tree_param":{"num_deleted":"0","num_feature":"11","num_nodes":"7","size_leaf_vector":"1"}},{"base_weights":[-2.4399515E-2,-1.7192976E-1,6.088672E-2,-5.8903294E-3,1.5145634E-1,-1.0897085E-3,-2.7204598E-3],"categories":[],"categories_nodes":[],"categories_segments":[],"categories_sizes":[],"default_left":[0,0,0,0,0,0,0],"id":30,"left_children":[1,-1,3,5,-1,-1,-1],"loss_changes":[8.162483E-1,0E0,4.5819172E-1,6.992661E-5,0E0,0E0,0E0],"parents":[2147483647,0,0,2,2,3,3],"right_children":[2,-1,4,6,-1,-1,-1],"split_conditions":[2.3157623E-1,-1.7192976E-1,8.5935E1,1.757611E2,1.5145634E-1,-1.0897085E-3,-2.7204598E-3],"split_indices":[1,0,3,6,0,0,0],"split_type":[0,0,0,0,0,0,0],"sum_hessian":[1.5696841E1,1.3421617E0,1.435468E1,1.3335608E1,1.0190722E0,9.04903E0,4.286577E0],"tree_param":{"num_deleted":"0","num_feature":"11","num_nodes":"7","size_leaf_vector":"1"}},{"base_weights":[-1.9382164E-2,-1.593945E-1,1.6100865E-2],"categories":[],"categories_nodes":[],"categories_segments":[],"categories_sizes":[],"default_left":[0,0,0],"id":31,"left_children":[1,-1,-1],"loss_changes":[6.399632E-1,0E0,0E0],"parents":[2147483647,0,0],"right_children":[2,-1,-1],"split_conditions":[3.49897E-1,-1.593945E-1,1.6100865E-2],"split_indices":[0,0,0],"split_type":[0,0,0],"sum_hessian":[1.5349936E1,1.1334928E0,1.4216442E1],"tree_param":{"num_deleted":"0","num_feature":"11","num_nodes":"3","size_leaf_vector":"1"}},{"base_weights":[-2.350587E-2,-4.9179774E-2,7.168783E-3,-2.1041473E-3,8.626663E-3],"categories":[],"categories_nodes":[],"categories_segments":[],"categories_sizes":[],"default_left":[0,0,0,0,0],"id":32,"left_children":[1,-1,3,-1,-1],"loss_changes":[7.049427E-2,0E0,4.5385696E-3,0E0,0E0],"parents":[2147483647,0,0,2,2],"right_children":[2,-1,4,-1,-1],"split_conditions":[1.3375124E-1,-4.9179774E-2,4.8804317E0,-2.1041473E-3,8.626663E-3],"split_indices":[2,0,5,0,0],"split_type":[0,0,0,0,0],"sum_hessian":[1.5092497E1,1.9269233E0,1.3165574E1,8.3528185E0,4.8127556E0],"tree_param":{"num_deleted":"0","num_feature":"11","num_nodes":"5","size_leaf_vector":"1"}},{"base_weights":[-1.9156458E-2,3.9861936E-2,-4.201026E-2,-6.4264503E-3,-1.986705E-2],"categories":[],"categories_nodes":[],"categories_segments":[],"categories_sizes":[],"default_left":[0,0,0,0,0],"id":33,"left_children":[1,-1,3,-1,-1],"loss_changes":[6.1406005E-2,0E0,5.923165E-3,0E0,0E0],"parents":[2147483647,0,0,2,2],"right_children":[2,-1,4,-1,-1],"split_conditions":[5.3E-2,3.9861936E-2,6.160603E-1,-6.4264503E-3,-1.986705E-2],"split_indices":[9,0,8,0,0],"split_type":[0,0,0,0,0],"sum_hessian":[1.5066976E1,1.339855E0,1.372712E1,8.437408E0,5.289712E0],"tree_param":{"num_deleted":"0","num_feature":"11","num_nodes":"5","size_leaf_vector":"1"}},{"base_weights":[-1.2501072E-2,-4.246499E-2,1.4783217E-2,-5.313205E-4,1.1064762E-2,-2.9734656E-4,3.350986E-6],"categories":[],"categories_nodes":[],"categories_segments":[],"categories_sizes":[],"default_left":[0,0,0,0,0,0,0],"id":34,"left_children":[1,-1,3,5,-1,-1,-1],"loss_changes":[5.878537E-2,0E0,4.8243185E-3,2.3488108E-6,0E0,0E0,0E0],"parents":[2147483647,0,0,2,2,3,3],"right_children":[2,-1,4,6,-1,-1,-1],"split_conditions":[1.3375124E-1,-4.246499E-2,4.8804317E0,2.61201E0,1.1064762E-2,-2.9734656E-4,3.350986E-6],"split_indices":[2,0,5,5,0,0,0],"split_type":[0,0,0,0,0,0,0],"sum_hessian":[1.5101303E1,1.904667E0,1.3196636E1,8.371355E0,4.825281E0,4.083222E0,4.2881336E0],"tree_param":{"num_deleted":"0","num_feature":"11","num_nodes":"7","size_leaf_vector":"1"}},{"base_weights":[-1.0758155E-2,3.85496E-2,-3.1994008E-2,-1.4087526E-2,-1.6162677E-2,-2.3840156E-3,-5.198625E-3],"categories":[],"categories_nodes":[],"categories_segments":[],"categories_sizes":[],"default_left":[0,0,0,0,0,0,0],"id":35,"left_children":[1,-1,3,5,-1,-1,-1],"loss_changes":[5.16336E-2,0E0,5.018132E-3,5.0636125E-5,0E0,0E0,0E0],"parents":[2147483647,0,0,2,2,3,3],"right_children":[2,-1,4,6,-1,-1,-1],"split_conditions":[5.3E-2,3.85496E-2,6.160603E-1,2.61201E0,-1.6162677E-2,-2.3840156E-3,-5.198625E-3],"split_indices":[9,0,8,5,0,0,0],"split_type":[0,0,0,0,0,0,0],"sum_hessian":[1.5069868E1,1.3256599E0,1.3744208E1,8.462691E0,5.2815166E0,4.1161036E0,4.3465877E0],"tree_param":{"num_deleted":"0","num_feature":"11","num_nodes":"7","size_leaf_vector":"1"}},{"base_weights":[-6.5754987E-3,-3.7223507E-2,1.7781768E-2,2.0011845E-3,1.2035092E-2,9.854338E-5,9.688671E-4],"categories":[],"categories_nodes":[],"categories_segments":[],"categories_sizes":[],"default_left":[0,0,0,0,0,0,0],"id":36,"left_children":[1,-1,3,5,-1,-1,-1],"loss_changes":[4.826406E-2,0E0,4.926148E-3,1.8203864E-5,0E0,0E0,0E0],"parents":[2147483647,0,0,2,2,3,3],"right_children":[2,-1,4,6,-1,-1,-1],"split_conditions":[1.3375124E-1,-3.7223507E-2,4.8804317E0,2.61201E0,1.2035092E-2,9.854338E-5,9.688671E-4],"split_indices":[2,0,5,5,0,0,0],"split_type":[0,0,0,0,0,0,0],"sum_hessian":[1.5092573E1,1.8884288E0,1.32041445E1,8.37589E0,4.828254E0,4.083157E0,4.2927327E0],"tree_param":{"num_deleted":"0","num_feature":"11","num_nodes":"7","size_leaf_vector":"1"}},{"base_weights":[-6.114989E-3,3.6794618E-2,-2.588834E-2,-9.843078E-3,-1.3803476E-2,-3.8789972E-3,-1.4976835E-3],"categories":[],"categories_nodes":[],"categories_segments":[],"categories_sizes":[],"default_left":[0,0,0,0,0,0,0],"id":37,"left_children":[1,-1,3,5,-1,-1,-1],"loss_changes":[4.406704E-2,0E0,4.3090954E-3,7.736962E-5,0E0,0E0,0E0],"parents":[2147483647,0,0,2,2,3,3],"right_children":[2,-1,4,6,-1,-1,-1],"split_conditions":[5.3E-2,3.6794618E-2,6.160603E-1,3.054352E0,-1.3803476E-2,-3.8789972E-3,-1.4976835E-3],"split_indices":[9,0,8,5,0,0,0],"split_type":[0,0,0,0,0,0,0],"sum_hessian":[1.5060654E1,1.3122936E0,1.374836E1,8.477759E0,5.270601E0,4.163005E0,4.3147545E0],"tree_param":{"num_deleted":"0","num_feature":"11","num_nodes":"7","size_leaf_vector":"1"}},{"base_weights":[-3.1637459E-3,-3.29777E-2,1.8684832E-2,8.9467847E-4,1.222274E-2],"categories":[],"categories_nodes":[],"categories_segments":[],"categories_sizes":[],"default_left":[0,0,0,0,0],"id":38,"left_children":[1,-1,3,-1,-1],"loss_changes":[3.9555456E-2,0E0,4.797057E-3,0E0,0E0],"parents":[2147483647,0,0,2,2],"right_children":[2,-1,4,-1,-1],"split_conditions":[1.3375124E-1,-3.29777E-2,4.8804317E0,8.9467847E-4,1.222274E-2],"split_indices":[2,0,5,0,0],"split_type":[0,0,0,0,0],"sum_hessian":[1.5077157E1,1.8764981E0,1.3200659E1,8.374297E0,4.8263617E0],"tree_param":{"num_deleted":"0","num_feature":"11","num_nodes":"5","size_leaf_vector":"1"}},{"base_weights":[-3.455794E-3,3.4821093E-2,-2.1864878E-2,-7.0929537E-3,-1.2228785E-2,-5.200176E-4,-3.2700028E-3],"categories":[],"categories_nodes":[],"categories_segments":[],"categories_sizes":[],"default_left":[0,0,0,0,0,0,0],"id":39,"left_children":[1,-1,3,5,-1,-1,-1],"loss_changes":[3.7845384E-2,0E0,3.8273437E-3,1.7468442E-4,0E0,0E0,0E0],"parents":[2147483647,0,0,2,2,3,3],"right_children":[2,-1,4,6,-1,-1,-1],"split_conditions":[5.3E-2,3.4821093E-2,6.160603E-1,2.61201E0,-1.2228785E-2,-5.200176E-4,-3.2700028E-3],"split_indices":[9,0,8,5,0,0,0],"split_type":[0,0,0,0,0,0,0],"sum_hessian":[1.50462055E1,1.3000717E0,1.3746134E1,8.48721E0,5.258923E0,4.1293015E0,4.357909E0],"tree_param":{"num_deleted":"0","num_feature":"11","num_nodes":"7","size_leaf_vector":"1"}},{"base_weights":[-1.2309101E-3,-2.9475113E-2,1.8457275E-2,3.0924254E-3,1.2005111E-2,4.80104E-4,1.1823113E-3],"categories":[],"categories_nodes":[],"categories_segments":[],"categories_sizes":[],"default_left":[0,0,0,0,0,0,0],"id":40,"left_children":[1,-1,3,5,-1,-1,-1],"loss_changes":[3.2490835E-2,0E0,4.577806E-3,5.5581913E-6,0E0,0E0,0E0],"parents":[2147483647,0,0,2,2,3,3],"right_children":[2,-1,4,6,-1,-1,-1],"split_conditions":[1.3375124E-1,-2.9475113E-2,4.8804317E0,2.61201E0,1.2005111E-2,4.80104E-4,1.1823113E-3],"split_indices":[2,0,5,5,0,0,0],"split_type":[0,0,0,0,0,0,0],"sum_hessian":[1.5060314E1,1.8674703E0,1.3192843E1,8.370751E0,4.8220925E0,4.081052E0,4.289699E0],"tree_param":{"num_deleted":"0","num_feature":"11","num_nodes":"7","size_leaf_vector":"1"}},{"base_weights":[-1.8526588E-3,1.03195E-2,-5.4898087E-2,-7.94308E-2,9.058274E-3],"categories":[],"categories_nodes":[],"categories_segments":[],"categories_sizes":[],"default_left":[0,0,0,0,0],"id":41,"left_children":[1,-1,3,-1,-1],"loss_changes":[3.271599E-2,0E0,1.3109922E-1,0E0,0E0],"parents":[2147483647,0,0,2,2],"right_children":[2,-1,4,-1,-1],"split_conditions":[6.160603E-1,1.03195E-2,1.3375124E-1,-7.94308E-2,9.058274E-3],"split_indices":[8,0,2,0,0],"split_type":[0,0,0,0,0],"sum_hessian":[1.503141E1,9.138045E0,5.893365E0,1.0909928E0,4.802372E0],"tree_param":{"num_deleted":"0","num_feature":"11","num_nodes":"5","size_leaf_vector":"1"}},{"base_weights":[-5.153752E-3,3.781605E-2,-2.5071137E-2,-2.4881298E-3,-3.2963444E-2,-4.7587245E-3,-1.290025E-2],"categories":[],"categories_nodes":[],"categories_segments":[],"categories_sizes":[],"default_left":[0,0,0,0,0,0,0],"id":42,"left_children":[1,-1,3,-1,5,-1,-1],"loss_changes":[4.4819213E-2,0E0,1.6696565E-3,0E0,9.7320136E-4,0E0,0E0],"parents":[2147483647,0,0,2,2,4,4],"right_children":[2,-1,4,-1,6,-1,-1],"split_conditions":[5.3E-2,3.781605E-2,6.606604E1,-2.4881298E-3,2.61201E0,-4.7587245E-3,-1.290025E-2],"split_indices":[9,0,6,0,5,0,0],"split_type":[0,0,0,0,0,0,0],"sum_hessian":[1.494108E1,1.2668427E0,1.3674237E1,5.030764E0,8.643473E0,4.1512265E0,4.4922466E0],"tree_param":{"num_deleted":"0","num_feature":"11","num_nodes":"7","size_leaf_vector":"1"}},{"base_weights":[-2.4714991E-3,3.0805614E-2,-2.106402E-2,-1.4623663E-2,-8.260584E-3,-5.37163E-3,-2.603054E-3],"categories":[],"categories_nodes":[],"categories_segments":[],"categories_sizes":[],"default_left":[0,0,0,0,0,0,0],"id":43,"left_children":[1,-1,3,5,-1,-1,-1],"loss_changes":[3.3374153E-2,0E0,1.972802E-4,2.7061207E-5,0E0,0E0,0E0],"parents":[2147483647,0,0,2,2,3,3],"right_children":[2,-1,4,6,-1,-1,-1],"split_conditions":[2.675E1,3.0805614E-2,6.160603E-1,3.054352E0,-8.260584E-3,-5.37163E-3,-2.603054E-3],"split_indices":[10,0,8,5,0,0,0],"split_type":[0,0,0,0,0,0,0],"sum_hessian":[1.4963731E1,1.5686591E0,1.3395071E1,8.347361E0,5.047711E0,4.0831394E0,4.264221E0],"tree_param":{"num_deleted":"0","num_feature":"11","num_nodes":"7","size_leaf_vector":"1"}},{"base_weights":[-8.055504E-4,3.1251226E-2,-4.792757E-2,4.8435032E-3,1.2140911E-2,-7.3222086E-2,9.081878E-3],"categories":[],"categories_nodes":[],"categories_segments":[],"categories_sizes":[],"default_left":[0,0,0,0,0,0,0],"id":44,"left_children":[1,3,5,-1,-1,-1,-1],"loss_changes":[2.5637535E-2,7.553082E-4,1.1268338E-1,0E0,0E0,0E0,0E0],"parents":[2147483647,0,0,1,1,2,2],"right_children":[2,4,6,-1,-1,-1,-1],"split_conditions":[6.160603E-1,3.054352E0,1.3375124E-1,4.8435032E-3,1.2140911E-2,-7.3222086E-2,9.081878E-3],"split_indices":[8,5,2,0,0,0,0],"split_type":[0,0,0,0,0,0,0],"sum_hessian":[1.4980444E1,9.115819E0,5.864625E0,4.4973817E0,4.6184373E0,1.0670573E0,4.797568E0],"tree_param":{"num_deleted":"0","num_feature":"11","num_nodes":"7","size_leaf_vector":"1"}},{"base_weights":[-3.5917293E-3,3.062158E-2,-2.1994757E-2,-2.716035E-3,-8.349501E-3],"categories":[],"categories_nodes":[],"categories_segments":[],"categories_sizes":[],"default_left":[0,0,0,0,0],"id":45,"left_children":[1,-1,3,-1,-1],"loss_changes":[3.3166062E-2,0E0,8.3316164E-4,0E0,0E0],"parents":[2147483647,0,0,2,2],"right_children":[2,-1,4,-1,-1],"split_conditions":[2.675E1,3.062158E-2,6.606604E1,-2.716035E-3,-8.349501E-3],"split_indices":[10,0,6,0,0],"split_type":[0,0,0,0,0],"sum_hessian":[1.49015255E1,1.5359825E0,1.3365543E1,4.947427E0,8.418117E0],"tree_param":{"num_deleted":"0","num_feature":"11","num_nodes":"5","size_leaf_vector":"1"}},{"base_weights":[-1.2658768E-3,2.9218316E-2,-1.6187506E-2,-5.224774E-3,-9.105145E-3,-2.0007174E-5,-2.755872E-3],"categories":[],"categories_nodes":[],"categories_segments":[],"categories_sizes":[],"default_left":[0,0,0,0,0,0,0],"id":46,"left_children":[1,-1,3,5,-1,-1,-1],"loss_changes":[2.502062E-2,0E0,2.1222972E-3,1.9327298E-4,0E0,0E0,0E0],"parents":[2147483647,0,0,2,2,3,3],"right_children":[2,-1,4,6,-1,-1,-1],"split_conditions":[5.3E-2,2.9218316E-2,6.160603E-1,2.61201E0,-9.105145E-3,-2.0007174E-5,-2.755872E-3],"split_indices":[9,0,8,5,0,0,0],"split_type":[0,0,0,0,0,0,0],"sum_hessian":[1.4924805E1,1.2346126E0,1.3690192E1,8.488582E0,5.20161E0,4.129083E0,4.3594985E0],"tree_param":{"num_deleted":"0","num_feature":"11","num_nodes":"7","size_leaf_vector":"1"}},{"base_weights":[2.09184E-4,2.7706038E-2,-4.0382404E-2,4.337055E-3,1.0726647E-2,-6.718605E-2,9.426618E-3],"categories":[],"categories_nodes":[],"categories_segments":[],"categories_sizes":[],"default_left":[0,0,0,0,0,0,0],"id":47,"left_children":[1,3,5,-1,-1,-1,-1],"loss_changes":[1.8906182E-2,5.595754E-4,9.723225E-2,0E0,0E0,0E0,0E0],"parents":[2147483647,0,0,1,1,2,2],"right_children":[2,4,6,-1,-1,-1,-1],"split_conditions":[6.160603E-1,3.054352E0,1.3375124E-1,4.337055E-3,1.0726647E-2,-6.718605E-2,9.426618E-3],"split_indices":[8,5,2,0,0,0,0],"split_type":[0,0,0,0,0,0,0],"sum_hessian":[1.4936469E1,9.093769E0,5.8427005E0,4.493533E0,4.6002355E0,1.0470185E0,4.795682E0],"tree_param":{"num_deleted":"0","num_feature":"11","num_nodes":"7","size_leaf_vector":"1"}},{"base_weights":[-2.585184E-3,2.7251953E-2,-1.8704763E-2,-1.2743683E-3,-2.5846457E-2,-4.1237045E-3,-9.760447E-3],"categories":[],"categories_nodes":[],"categories_segments":[],"categories_sizes":[],"default_left":[0,0,0,0,0,0,0],"id":48,"left_children":[1,-1,3,-1,5,-1,-1],"loss_changes":[2.5593316E-2,0E0,1.3729096E-3,0E0,3.1483592E-4,0E0,0E0],"parents":[2147483647,0,0,2,2,4,4],"right_children":[2,-1,4,-1,6,-1,-1],"split_conditions":[2.675E1,2.7251953E-2,6.606604E1,-1.2743683E-3,2.61201E0,-4.1237045E-3,-9.760447E-3],"split_indices":[10,0,6,0,5,0,0],"split_type":[0,0,0,0,0,0,0],"sum_hessian":[1.4866282E1,1.5054867E0,1.3360796E1,4.945158E0,8.415638E0,4.083258E0,4.33238E0],"tree_param":{"num_deleted":"0","num_feature":"11","num_nodes":"7","size_leaf_vector":"1"}},{"base_weights":[-1.0382646E-3,2.5733924E-2,-1.4053163E-2,5.603733E-4,-2.2532802E-2,-2.1372365E-3,-9.869391E-3],"categories":[],"categories_nodes":[],"categories_segments":[],"categories_sizes":[],"default_left":[0,0,0,0,0,0,0],"id":49,"left_children":[1,-1,3,-1,5,-1,-1],"loss_changes":[1.9154578E-2,0E0,2.0230864E-3,0E0,1.3069916E-3,0E0,0E0],"parents":[2147483647,0,0,2,2,4,4],"right_children":[2,-1,4,-1,6,-1,-1],"split_conditions":[5.3E-2,2.5733924E-2,6.606604E1,5.603733E-4,2.61201E0,-2.1372365E-3,-9.869391E-3],"split_indices":[9,0,6,0,5,0,0],"split_type":[0,0,0,0,0,0,0],"sum_hessian":[1.4885179E1,1.2116671E0,1.36735115E1,5.022729E0,8.650783E0,4.157551E0,4.4932313E0],"tree_param":{"num_deleted":"0","num_feature":"11","num_nodes":"7","size_leaf_vector":"1"}},{"base_weights":[1.8312589E-4,2.838361E-2,-4.1652314E-2,3.6643476E-3,1.174757E-2,-6.1947446E-2,7.0481817E-3],"categories":[],"categories_nodes":[],"categories_segments":[],"categories_sizes":[],"default_left":[0,0,0,0,0,0,0],"id":50,"left_children":[1,3,5,-1,-1,-1,-1],"loss_changes":[1.9939939E-2,1.2799529E-3,7.795202E-2,0E0,0E0,0E0,0E0],"parents":[2147483647,0,0,1,1,2,2],"right_children":[2,4,6,-1,-1,-1,-1],"split_conditions":[6.160603E-1,3.054352E0,1.3375124E-1,3.6643476E-3,1.174757E-2,-6.1947446E-2,7.0481817E-3],"split_indices":[8,5,2,0,0,0,0],"split_type":[0,0,0,0,0,0,0],"sum_hessian":[1.489932E1,9.092068E0,5.807251E0,4.4891524E0,4.602916E0,1.0303932E0,4.776858E0],"tree_param":{"num_deleted":"0","num_feature":"11","num_nodes":"7","size_leaf_vector":"1"}},{"base_weights":[-2.3929426E-3,2.44551E-2,-1.6721578E-2,-2.0728428E-3,-2.1122681E-2,-3.565868E-3,-7.788418E-3],"categories":[],"categories_nodes":[],"categories_segments":[],"categories_sizes":[],"default_left":[0,0,0,0,0,0,0],"id":51,"left_children":[1,-1,3,-1,5,-1,-1],"loss_changes":[2.0403516E-2,0E0,4.7402224E-4,0E0,1.12636946E-4,0E0,0E0],"parents":[2147483647,0,0,2,2,4,4],"right_children":[2,-1,4,-1,6,-1,-1],"split_conditions":[2.675E1,2.44551E-2,6.606604E1,-2.0728428E-3,2.61201E0,-3.565868E-3,-7.788418E-3],"split_indices":[10,0,6,0,5,0,0],"split_type":[0,0,0,0,0,0,0],"sum_hessian":[1.483647E1,1.4800498E0,1.335642E1,4.93158E0,8.42484E0,4.084521E0,4.3403187E0],"tree_param":{"num_deleted":"0","num_feature":"11","num_nodes":"7","size_leaf_vector":"1"}},{"base_weights":[-9.699728E-4,2.448119E-2,-3.8645856E-2,3.0493827E-3,1.02465E-2,-5.5362385E-2,5.698383E-3],"categories":[],"categories_nodes":[],"categories_segments":[],"categories_sizes":[],"default_left":[0,0,0,0,0,0,0],"id":52,"left_children":[1,3,5,-1,-1,-1,-1],"loss_changes":[1.6148001E-2,1.0480378E-3,6.0517758E-2,0E0,0E0,0E0,0E0],"parents":[2147483647,0,0,1,1,2,2],"right_children":[2,4,6,-1,-1,-1,-1],"split_conditions":[6.160603E-1,3.054352E0,1.3375124E-1,3.0493827E-3,1.02465E-2,-5.5362385E-2,5.698383E-3],"split_indices":[8,5,2,0,0,0,0],"split_type":[0,0,0,0,0,0,0],"sum_hessian":[1.4853564E1,9.074017E0,5.779548E0,4.485909E0,4.588107E0,1.0132613E0,4.766287E0],"tree_param":{"num_deleted":"0","num_feature":"11","num_nodes":"7","size_leaf_vector":"1"}},{"base_weights":[-3.012321E-3,2.6092326E-2,-1.660116E-2,-7.8953983E-4,-2.3592975E-2,-2.6200102E-3,-9.983252E-3],"categories":[],"categories_nodes":[],"categories_segments":[],"categories_sizes":[],"default_left":[0,0,0,0,0,0,0],"id":53,"left_children":[1,-1,3,-1,5,-1,-1],"loss_changes":[2.0766107E-2,0E0,1.3607866E-3,0E0,1.088473E-3,0E0,0E0],"parents":[2147483647,0,0,2,2,4,4],"right_children":[2,-1,4,-1,6,-1,-1],"split_conditions":[5.4E-2,2.6092326E-2,6.606604E1,-7.8953983E-4,2.61201E0,-2.6200102E-3,-9.983252E-3],"split_indices":[9,0,6,0,5,0,0],"split_type":[0,0,0,0,0,0,0],"sum_hessian":[1.4801431E1,1.2333862E0,1.3568045E1,4.984876E0,8.583168E0,4.137112E0,4.4460564E0],"tree_param":{"num_deleted":"0","num_feature":"11","num_nodes":"7","size_leaf_vector":"1"}},{"base_weights":[-1.2892756E-3,2.1600325E-2,-1.3749736E-2,-8.774059E-3,-5.7673585E-3,-3.2731118E-3,-1.5131335E-3],"categories":[],"categories_nodes":[],"categories_segments":[],"categories_sizes":[],"default_left":[0,0,0,0,0,0,0],"id":54,"left_children":[1,-1,3,5,-1,-1,-1],"loss_changes":[1.5436061E-2,0E0,2.224918E-4,1.957937E-5,0E0,0E0,0E0],"parents":[2147483647,0,0,2,2,3,3],"right_children":[2,-1,4,6,-1,-1,-1],"split_conditions":[2.675E1,2.1600325E-2,6.160603E-1,3.054352E0,-5.7673585E-3,-3.2731118E-3,-1.5131335E-3],"split_indices":[10,0,8,5,0,0,0],"split_type":[0,0,0,0,0,0,0],"sum_hessian":[1.4818623E1,1.4589512E0,1.3359672E1,8.3623295E0,4.997342E0,4.0933022E0,4.269027E0],"tree_param":{"num_deleted":"0","num_feature":"11","num_nodes":"7","size_leaf_vector":"1"}},{"base_weights":[-2.0318036E-4,2.2788668E-2,-3.4372304E-2,2.7127007E-3,9.66518E-3,-5.1202554E-2,5.6879986E-3],"categories":[],"categories_nodes":[],"categories_segments":[],"categories_sizes":[],"default_left":[0,0,0,0,0,0,0],"id":55,"left_children":[1,3,5,-1,-1,-1,-1],"loss_changes":[1.3220321E-2,1.0131435E-3,5.2423157E-2,0E0,0E0,0E0,0E0],"parents":[2147483647,0,0,1,1,2,2],"right_children":[2,4,6,-1,-1,-1,-1],"split_conditions":[6.160603E-1,3.054352E0,1.3375124E-1,2.7127007E-3,9.66518E-3,-5.1202554E-2,5.6879986E-3],"split_indices":[8,5,2,0,0,0,0],"split_type":[0,0,0,0,0,0,0],"sum_hessian":[1.4831012E1,9.064631E0,5.7663803E0,4.4849195E0,4.579712E0,1.0029334E0,4.763447E0],"tree_param":{"num_deleted":"0","num_feature":"11","num_nodes":"7","size_leaf_vector":"1"}},{"base_weights":[-2.2562928E-3,2.317587E-2,-1.389004E-2,4.1580043E-4,-2.197515E-2,-1.7677033E-3,-9.934222E-3],"categories":[],"categories_nodes":[],"categories_segments":[],"categories_sizes":[],"default_left":[0,0,0,0,0,0,0],"id":56,"left_children":[1,-1,3,-1,5,-1,-1],"loss_changes":[1.5672682E-2,0E0,1.8357199E-3,0E0,1.5277504E-3,0E0,0E0],"parents":[2147483647,0,0,2,2,4,4],"right_children":[2,-1,4,-1,6,-1,-1],"split_conditions":[5.3E-2,2.317587E-2,6.606604E1,4.1580043E-4,2.61201E0,-1.7677033E-3,-9.934222E-3],"split_indices":[9,0,6,0,5,0,0],"split_type":[0,0,0,0,0,0,0],"sum_hessian":[1.4783566E1,1.1670585E0,1.3616508E1,4.999329E0,8.617179E0,4.151733E0,4.4654465E0],"tree_param":{"num_deleted":"0","num_feature":"11","num_nodes":"7","size_leaf_vector":"1"}},{"base_weights":[-8.249639E-4,1.9354466E-2,-1.1879766E-2,-7.3808995E-3,-5.078955E-3,-2.8192815E-3,-1.2091924E-3],"categories":[],"categories_nodes":[],"categories_segments":[],"categories_sizes":[],"default_left":[0,0,0,0,0,0,0],"id":57,"left_children":[1,-1,3,5,-1,-1,-1],"loss_changes":[1.2177833E-2,0E0,2.0122109E-4,2.5400659E-5,0E0,0E0,0E0],"parents":[2147483647,0,0,2,2,3,3],"right_children":[2,-1,4,6,-1,-1,-1],"split_conditions":[2.675E1,1.9354466E-2,6.160603E-1,3.054352E0,-5.078955E-3,-2.8192815E-3,-1.2091924E-3],"split_indices":[10,0,8,5,0,0,0],"split_type":[0,0,0,0,0,0,0],"sum_hessian":[1.4798297E1,1.4416214E0,1.3356675E1,8.365664E0,4.991011E0,4.095386E0,4.2702775E0],"tree_param":{"num_deleted":"0","num_feature":"11","num_nodes":"7","size_leaf_vector":"1"}},{"base_weights":[8.388179E-5,2.1281837E-2,-9.450991E-3,2.2963218E-3,9.261329E-3],"categories":[],"categories_nodes":[],"categories_segments":[],"categories_sizes":[],"default_left":[0,0,0,0,0],"id":58,"left_children":[1,3,-1,-1,-1],"loss_changes":[1.1256187E-2,1.0779644E-3,0E0,0E0,0E0],"parents":[2147483647,0,0,1,1],"right_children":[2,4,-1,-1,-1],"split_conditions":[6.160603E-1,3.054352E0,-9.450991E-3,2.2963218E-3,9.261329E-3],"split_indices":[8,5,0,0,0],"split_type":[0,0,0,0,0],"sum_hessian":[1.4809435E1,9.057354E0,5.7520814E0,4.483712E0,4.5736413E0],"tree_param":{"num_deleted":"0","num_feature":"11","num_nodes":"5","size_leaf_vector":"1"}},{"base_weights":[2.0160305E-4,1.1733218E-2,-2.3506323E-2,-3.389795E-2,-5.585895E-4,3.797174E-4,-6.6285447E-4],"categories":[],"categories_nodes":[],"categories_segments":[],"categories_sizes":[],"default_left":[0,0,0,0,0,0,0],"id":59,"left_children":[1,-1,3,-1,5,-1,-1],"loss_changes":[1.5494777E-2,0E0,2.138154E-2,0E0,3.0856037E-5,0E0,0E0],"parents":[2147483647,0,0,2,2,4,4],"right_children":[2,-1,4,-1,6,-1,-1],"split_conditions":[6.606604E1,1.1733218E-2,1.3375124E-1,-3.389795E-2,2.61201E0,3.797174E-4,-6.6285447E-4],"split_indices":[6,0,2,0,5,0,0],"split_type":[0,0,0,0,0,0,0],"sum_hessian":[1.48007E1,5.357824E0,9.442877E0,1.1264079E0,8.316468E0,4.0616107E0,4.254858E0],"tree_param":{"num_deleted":"0","num_feature":"11","num_nodes":"7","size_leaf_vector":"1"}},{"base_weights":[-1.2818828E-3,1.9387186E-2,-1.2332888E-2,-8.987502E-4,-1.6895723E-2,-2.1171002E-3,-6.9352305E-3],"categories":[],"categories_nodes":[],"categories_segments":[],"categories_sizes":[],"default_left":[0,0,0,0,0,0,0],"id":60,"left_children":[1,-1,3,-1,5,-1,-1],"loss_changes":[1.228511E-2,0E0,5.606578E-4,0E0,4.1364855E-4,0E0,0E0],"parents":[2147483647,0,0,2,2,4,4],"right_children":[2,-1,4,-1,6,-1,-1],"split_conditions":[2.675E1,1.9387186E-2,6.606604E1,-8.987502E-4,2.61201E0,-2.1171002E-3,-6.9352305E-3],"split_indices":[10,0,6,0,5,0,0],"split_type":[0,0,0,0,0,0,0],"sum_hessian":[1.4773313E1,1.4253056E0,1.3348007E1,4.925465E0,8.422542E0,4.0896363E0,4.3329053E0],"tree_param":{"num_deleted":"0","num_feature":"11","num_nodes":"7","size_leaf_vector":"1"}},{"base_weights":[-2.9168258E-4,2.1121964E-2,-9.66407E-3,9.126658E-3,2.5910467E-3],"categories":[],"categories_nodes":[],"categories_segments":[],"categories_sizes":[],"default_left":[0,0,0,0,0],"id":61,"left_children":[1,3,-1,-1,-1],"loss_changes":[1.1471735E-2,9.045005E-4,0E0,0E0,0E0],"parents":[2147483647,0,0,1,1],"right_children":[2,4,-1,-1,-1],"split_conditions":[6.160603E-1,2.61201E0,-9.66407E-3,9.126658E-3,2.5910467E-3],"split_indices":[8,5,0,0,0],"split_type":[0,0,0,0,0],"sum_hessian":[1.4786851E1,9.052578E0,5.734273E0,4.364658E0,4.68792E0],"tree_param":{"num_deleted":"0","num_feature":"11","num_nodes":"5","size_leaf_vector":"1"}},{"base_weights":[-7.53443E-5,1.1052263E-2,-2.2552218E-2,-3.073795E-2,-1.9510036E-3,-1.5078938E-3,4.1129874E-4],"categories":[],"categories_nodes":[],"categories_segments":[],"categories_sizes":[],"default_left":[0,0,0,0,0,0,0],"id":62,"left_children":[1,-1,3,-1,5,-1,-1],"loss_changes":[1.3924753E-2,0E0,1.6967721E-2,0E0,1.0200903E-4,0E0,0E0],"parents":[2147483647,0,0,2,2,4,4],"right_children":[2,-1,4,-1,6,-1,-1],"split_conditions":[6.606604E1,1.1052263E-2,1.3375124E-1,-3.073795E-2,2.61201E0,-1.5078938E-3,4.1129874E-4],"split_indices":[6,0,2,0,5,0,0],"split_type":[0,0,0,0,0,0,0],"sum_hessian":[1.4780335E1,5.3516617E0,9.428674E0,1.1181458E0,8.310528E0,4.0490866E0,4.261441E0],"tree_param":{"num_deleted":"0","num_feature":"11","num_nodes":"7","size_leaf_vector":"1"}},{"base_weights":[-1.3707759E-3,2.0875072E-2,-1.1971043E-2,1.4226406E-4,-1.8492172E-2,-7.565337E-3,-2.5470324E-3],"categories":[],"categories_nodes":[],"categories_segments":[],"categories_sizes":[],"default_left":[0,0,0,0,0,0,0],"id":63,"left_children":[1,-1,3,-1,5,-1,-1],"loss_changes":[1.2683918E-2,0E0,1.1905485E-3,0E0,4.3034274E-4,0E0,0E0],"parents":[2147483647,0,0,2,2,4,4],"right_children":[2,-1,4,-1,6,-1,-1],"split_conditions":[5.4E-2,2.0875072E-2,6.606604E1,1.4226406E-4,2.2195569E2,-7.565337E-3,-2.5470324E-3],"split_indices":[9,0,6,0,6,0,0],"split_type":[0,0,0,0,0,0,0],"sum_hessian":[1.4756383E1,1.1947613E0,1.3561622E1,4.9816546E0,8.579967E0,4.2206473E0,4.359319E0],"tree_param":{"num_deleted":"0","num_feature":"11","num_nodes":"7","size_leaf_vector":"1"}},{"base_weights":[-2.5872208E-4,2.1624334E-2,-9.889324E-3,9.219632E-3,2.768563E-3],"categories":[],"categories_nodes":[],"categories_segments":[],"categories_sizes":[],"default_left":[0,0,0,0,0],"id":64,"left_children":[1,3,-1,-1,-1],"loss_changes":[1.1998035E-2,8.5112033E-4,0E0,0E0,0E0],"parents":[2147483647,0,0,1,1],"right_children":[2,4,-1,-1,-1],"split_conditions":[6.160603E-1,2.61201E0,-9.889324E-3,9.219632E-3,2.768563E-3],"split_indices":[8,5,0,0,0],"split_type":[0,0,0,0,0],"sum_hessian":[1.4768051E1,9.0509615E0,5.717089E0,4.3647437E0,4.686218E0],"tree_param":{"num_deleted":"0","num_feature":"11","num_nodes":"5","size_leaf_vector":"1"}},{"base_weights":[-3.8902544E-5,1.0390341E-2,-2.1160588E-2,-2.7767912E-2,-2.697187E-3,-1.6564117E-3,1.5788466E-4],"categories":[],"categories_nodes":[],"categories_segments":[],"categories_sizes":[],"default_left":[0,0,0,0,0,0,0],"id":65,"left_children":[1,-1,3,-1,5,-1,-1],"loss_changes":[1.2276007E-2,0E0,1.3480955E-2,0E0,8.762106E-5,0E0,0E0],"parents":[2147483647,0,0,2,2,4,4],"right_children":[2,-1,4,-1,6,-1,-1],"split_conditions":[6.606604E1,1.0390341E-2,1.3375124E-1,-2.7767912E-2,2.61201E0,-1.6564117E-3,1.5788466E-4],"split_indices":[6,0,2,0,5,0,0],"split_type":[0,0,0,0,0,0,0],"sum_hessian":[1.4761538E1,5.345917E0,9.415621E0,1.1100075E0,8.3056135E0,4.0470214E0,4.258592E0],"tree_param":{"num_deleted":"0","num_feature":"11","num_nodes":"7","size_leaf_vector":"1"}},{"base_weights":[-1.2273293E-3,1.9912504E-2,-1.2451028E-2,-1.2941472E-3,-4.873558E-3],"categories":[],"categories_nodes":[],"categories_segments":[],"categories_sizes":[],"default_left":[0,0,0,0,0],"id":66,"left_children":[1,-1,3,-1,-1],"loss_changes":[1.2769574E-2,0E0,3.7269527E-4,0E0,0E0],"parents":[2147483647,0,0,2,2],"right_children":[2,-1,4,-1,-1],"split_conditions":[2.675E1,1.9912504E-2,6.606604E1,-1.2941472E-3,-4.873558E-3],"split_indices":[10,0,6,0,0],"split_type":[0,0,0,0,0],"sum_hessian":[1.4740578E1,1.3991888E0,1.334139E1,4.9221005E0,8.419289E0],"tree_param":{"num_deleted":"0","num_feature":"11","num_nodes":"5","size_leaf_vector":"1"}},{"base_weights":[2.4536517E-5,2.1662783E-2,-9.720722E-3,2.1661068E-3,9.588426E-3],"categories":[],"categories_nodes":[],"categories_segments":[],"categories_sizes":[],"default_left":[0,0,0,0,0],"id":67,"left_children":[1,3,-1,-1,-1],"loss_changes":[1.1756705E-2,1.2638667E-3,0E0,0E0,0E0],"parents":[2147483647,0,0,1,1],"right_children":[2,4,-1,-1,-1],"split_conditions":[6.160603E-1,3.054352E0,-9.720722E-3,2.1661068E-3,9.588426E-3],"split_indices":[8,5,0,0,0],"split_type":[0,0,0,0,0],"sum_hessian":[1.4755129E1,9.048852E0,5.706277E0,4.47474E0,4.574112E0],"tree_param":{"num_deleted":"0","num_feature":"11","num_nodes":"5","size_leaf_vector":"1"}},{"base_weights":[1.5332582E-4,1.0146947E-2,-2.0390566E-2,-2.5623541E-2,-1.0453782E-3],"categories":[],"categories_nodes":[],"categories_segments":[],"categories_sizes":[],"default_left":[0,0,0,0,0],"id":68,"left_children":[1,-1,3,-1,-1],"loss_changes":[1.1581497E-2,0E0,1.11380685E-2,0E0,0E0],"parents":[2147483647,0,0,2,2],"right_children":[2,-1,4,-1,-1],"split_conditions":[6.606604E1,1.0146947E-2,1.3375124E-1,-2.5623541E-2,-1.0453782E-3],"split_indices":[6,0,2,0,0],"split_type":[0,0,0,0,0],"sum_hessian":[1.4746242E1,5.343037E0,9.403204E0,1.1042057E0,8.298999E0],"tree_param":{"num_deleted":"0","num_feature":"11","num_nodes":"5","size_leaf_vector":"1"}},{"base_weights":[-9.4534206E-4,2.0355199E-2,-1.1165525E-2,-4.2667715E-3,-6.6068587E-3,1.4130826E-3,-4.124048E-3],"categories":[],"categories_nodes":[],"categories_segments":[],"categories_sizes":[],"default_left":[0,0,0,0,0,0,0],"id":69,"left_children":[1,-1,3,5,-1,-1,-1],"loss_changes":[1.1815918E-2,0E0,9.960241E-4,9.275717E-4,0E0,0E0,0E0],"parents":[2147483647,0,0,2,2,3,3],"right_children":[2,-1,4,6,-1,-1,-1],"split_conditions":[5.4E-2,2.0355199E-2,1.6317749E-3,6.606604E1,-6.6068587E-3,1.4130826E-3,-4.124048E-3],"split_indices":[9,0,7,6,0,0,0],"split_type":[0,0,0,0,0,0,0],"sum_hessian":[1.472779E1,1.1755849E0,1.3552205E1,9.138553E0,4.413652E0,4.9522276E0,4.186325E0],"tree_param":{"num_deleted":"0","num_feature":"11","num_nodes":"7","size_leaf_vector":"1"}},{"base_weights":[4.7553393E-5,2.2449806E-2,-1.0080518E-2,9.43362E-3,3.002326E-3],"categories":[],"categories_nodes":[],"categories_segments":[],"categories_sizes":[],"default_left":[0,0,0,0,0],"id":70,"left_children":[1,3,-1,-1,-1],"loss_changes":[1.2619369E-2,8.0997264E-4,0E0,0E0,0E0],"parents":[2147483647,0,0,1,1],"right_children":[2,4,-1,-1,-1],"split_conditions":[6.160603E-1,2.61201E0,-1.0080518E-2,9.43362E-3,3.002326E-3],"split_indices":[8,5,0,0,0],"split_type":[0,0,0,0,0],"sum_hessian":[1.4739859E1,9.048551E0,5.6913085E0,4.3651814E0,4.683369E0],"tree_param":{"num_deleted":"0","num_feature":"11","num_nodes":"5","size_leaf_vector":"1"}},{"base_weights":[1.9433409E-4,9.483389E-3,-1.8976668E-2,-2.3446256E-2,-3.5843723E-3,-1.8433547E-3,-1.3336555E-4],"categories":[],"categories_nodes":[],"categories_segments":[],"categories_sizes":[],"default_left":[0,0,0,0,0,0,0],"id":71,"left_children":[1,-1,3,-1,5,-1,-1],"loss_changes":[1.0075688E-2,0E0,9.188942E-3,0E0,7.200797E-5,0E0,0E0],"parents":[2147483647,0,0,2,2,4,4],"right_children":[2,-1,4,-1,6,-1,-1],"split_conditions":[6.606604E1,9.483389E-3,1.3375124E-1,-2.3446256E-2,2.61201E0,-1.8433547E-3,-1.3336555E-4],"split_indices":[6,0,2,0,5,0,0],"split_type":[0,0,0,0,0,0,0],"sum_hessian":[1.4732853E1,5.3373027E0,9.39555E0,1.0977255E0,8.297824E0,4.0437074E0,4.254117E0],"tree_param":{"num_deleted":"0","num_feature":"11","num_nodes":"7","size_leaf_vector":"1"}},{"base_weights":[-8.800703E-4,1.952176E-2,-1.17505435E-2,-1.3826555E-3,-4.4977223E-3],"categories":[],"categories_nodes":[],"categories_segments":[],"categories_sizes":[],"default_left":[0,0,0,0,0],"id":72,"left_children":[1,-1,3,-1,-1],"loss_changes":[1.2031872E-2,0E0,2.6288582E-4,0E0,0E0],"parents":[2147483647,0,0,2,2],"right_children":[2,-1,4,-1,-1],"split_conditions":[2.675E1,1.952176E-2,6.606604E1,-1.3826555E-3,-4.4977223E-3],"split_indices":[10,0,6,0,0],"split_type":[0,0,0,0,0],"sum_hessian":[1.4715817E1,1.3767457E0,1.3339071E1,4.920681E0,8.418391E0],"tree_param":{"num_deleted":"0","num_feature":"11","num_nodes":"5","size_leaf_vector":"1"}},{"base_weights":[2.5130948E-4,2.1903707E-2,-9.696883E-3,2.3242151E-3,9.562342E-3],"categories":[],"categories_nodes":[],"categories_segments":[],"categories_sizes":[],"default_left":[0,0,0,0,0],"id":73,"left_children":[1,3,-1,-1,-1],"loss_changes":[1.1802059E-2,1.1708695E-3,0E0,0E0,0E0],"parents":[2147483647,0,0,1,1],"right_children":[2,4,-1,-1,-1],"split_conditions":[6.160603E-1,3.054352E0,-9.696883E-3,2.3242151E-3,9.562342E-3],"split_indices":[8,5,0,0,0],"split_type":[0,0,0,0,0],"sum_hessian":[1.4729334E1,9.04477E0,5.6845636E0,4.472212E0,4.5725584E0],"tree_param":{"num_deleted":"0","num_feature":"11","num_nodes":"5","size_leaf_vector":"1"}},{"base_weights":[3.271909E-4,1.9276265E-2,-1.0367232E-2,1.3747846E-2,-4.178169E-3],"categories":[],"categories_nodes":[],"categories_segments":[],"categories_sizes":[],"default_left":[0,0,0,0,0],"id":74,"left_children":[1,3,-1,-1,-1],"loss_changes":[1.1057744E-2,1.018434E-2,0E0,0E0,0E0],"parents":[2147483647,0,0,1,1],"right_children":[2,4,-1,-1,-1],"split_conditions":[1.6317749E-3,6.606604E1,-1.0367232E-2,1.3747846E-2,-4.178169E-3],"split_indices":[7,6,0,0,0],"split_type":[0,0,0,0,0],"sum_hessian":[1.4720289E1,9.828791E0,4.891499E0,5.2503734E0,4.5784173E0],"tree_param":{"num_deleted":"0","num_feature":"11","num_nodes":"5","size_leaf_vector":"1"}},{"base_weights":[1.9929644E-4,2.315926E-2,-1.0326475E-2,2.8139662E-3,9.761053E-3],"categories":[],"categories_nodes":[],"categories_segments":[],"categories_sizes":[],"default_left":[0,0,0,0,0],"id":75,"left_children":[1,3,-1,-1,-1],"loss_changes":[1.329144E-2,9.932392E-4,0E0,0E0,0E0],"parents":[2147483647,0,0,1,1],"right_children":[2,4,-1,-1,-1],"split_conditions":[6.160603E-1,3.054352E0,-1.0326475E-2,2.8139662E-3,9.761053E-3],"split_indices":[8,5,0,0,0],"split_type":[0,0,0,0,0],"sum_hessian":[1.4718147E1,9.04844E0,5.669707E0,4.474248E0,4.574192E0],"tree_param":{"num_deleted":"0","num_feature":"11","num_nodes":"5","size_leaf_vector":"1"}},{"base_weights":[2.917829E-4,1.8476373E-2,-9.955117E-3,1.2900684E-2,-3.6884642E-3],"categories":[],"categories_nodes":[],"categories_segments":[],"categories_sizes":[],"default_left":[0,0,0,0,0],"id":76,"left_children":[1,3,-1,-1,-1],"loss_changes":[1.0175724E-2,8.6957235E-3,0E0,0E0,0E0],"parents":[2147483647,0,0,1,1],"right_children":[2,4,-1,-1,-1],"split_conditions":[1.6317749E-3,6.606604E1,-9.955117E-3,1.2900684E-2,-3.6884642E-3],"split_indices":[7,6,0,0,0],"split_type":[0,0,0,0,0],"sum_hessian":[1.4708899E1,9.821642E0,4.887257E0,5.2442694E0,4.577372E0],"tree_param":{"num_deleted":"0","num_feature":"11","num_nodes":"5","size_leaf_vector":"1"}},{"base_weights":[1.7556807E-4,2.3708154E-2,-1.0611969E-2,3.069823E-3,9.80694E-3],"categories":[],"categories_nodes":[],"categories_segments":[],"categories_sizes":[],"default_left":[0,0,0,0,0],"id":77,"left_children":[1,3,-1,-1,-1],"loss_changes":[1.397836E-2,8.817944E-4,0E0,0E0,0E0],"parents":[2147483647,0,0,1,1],"right_children":[2,4,-1,-1,-1],"split_conditions":[6.160603E-1,3.054352E0,-1.0611969E-2,3.069823E-3,9.80694E-3],"split_indices":[8,5,0,0,0],"split_type":[0,0,0,0,0],"sum_hessian":[1.4706946E1,9.049465E0,5.657481E0,4.474918E0,4.5745473E0],"tree_param":{"num_deleted":"0","num_feature":"11","num_nodes":"5","size_leaf_vector":"1"}},{"base_weights":[2.7923513E-4,1.8360535E-2,-9.747189E-3,-8.664344E-6,-1.4831906E-2,-1.8452087E-3,-6.103237E-3],"categories":[],"categories_nodes":[],"categories_segments":[],"categories_sizes":[],"default_left":[0,0,0,0,0,0,0],"id":78,"left_children":[1,-1,3,-1,5,-1,-1],"loss_changes":[1.0185292E-2,0E0,7.0827897E-4,0E0,3.2533985E-4,0E0,0E0],"parents":[2147483647,0,0,2,2,4,4],"right_children":[2,-1,4,-1,6,-1,-1],"split_conditions":[2.675E1,1.8360535E-2,6.606604E1,-8.664344E-6,2.61201E0,-1.8452087E-3,-6.103237E-3],"split_indices":[10,0,6,0,5,0,0],"split_type":[0,0,0,0,0,0,0],"sum_hessian":[1.46977625E1,1.3557721E0,1.334199E1,4.928307E0,8.413683E0,4.089284E0,4.324399E0],"tree_param":{"num_deleted":"0","num_feature":"11","num_nodes":"7","size_leaf_vector":"1"}},{"base_weights":[8.627965E-4,2.0054562E-2,-8.436301E-3,8.734418E-3,2.3903549E-3],"categories":[],"categories_nodes":[],"categories_segments":[],"categories_sizes":[],"default_left":[0,0,0,0,0],"id":79,"left_children":[1,3,-1,-1,-1],"loss_changes":[9.301845E-3,8.6686574E-4,0E0,0E0,0E0],"parents":[2147483647,0,0,1,1],"right_children":[2,4,-1,-1,-1],"split_conditions":[6.160603E-1,2.61201E0,-8.436301E-3,8.734418E-3,2.3903549E-3],"split_indices":[8,5,0,0,0],"split_type":[0,0,0,0,0],"sum_hessian":[1.4708559E1,9.034437E0,5.674121E0,4.3584986E0,4.6759386E0],"tree_param":{"num_deleted":"0","num_feature":"11","num_nodes":"5","size_leaf_vector":"1"}},{"base_weights":[7.837933E-4,1.0029513E-2,-1.923742E-2,-2.2069495E-2,-5.003512E-3,-2.2624368E-3,-4.8419047E-4],"categories":[],"categories_nodes":[],"categories_segments":[],"categories_sizes":[],"default_left":[0,0,0,0,0,0,0],"id":80,"left_children":[1,-1,3,-1,5,-1,-1],"loss_changes":[1.09065175E-2,0E0,7.6491805E-3,0E0,6.7730245E-5,0E0,0E0],"parents":[2147483647,0,0,2,2,4,4],"right_children":[2,-1,4,-1,6,-1,-1],"split_conditions":[6.606604E1,1.0029513E-2,1.3375124E-1,-2.2069495E-2,2.61201E0,-2.2624368E-3,-4.8419047E-4],"split_indices":[6,0,2,0,5,0,0],"split_type":[0,0,0,0,0,0,0],"sum_hessian":[1.4701619E1,5.3339357E0,9.367683E0,1.0794352E0,8.288248E0,4.039058E0,4.24919E0],"tree_param":{"num_deleted":"0","num_feature":"11","num_nodes":"7","size_leaf_vector":"1"}},{"base_weights":[-3.9801755E-4,1.9076256E-2,-9.807885E-3,5.2161247E-4,-1.6002662E-2,-6.6836136E-3,-2.0716388E-3],"categories":[],"categories_nodes":[],"categories_segments":[],"categories_sizes":[],"default_left":[0,0,0,0,0,0,0],"id":81,"left_children":[1,-1,3,-1,5,-1,-1],"loss_changes":[1.0067765E-2,0E0,1.0679051E-3,0E0,3.92067E-4,0E0,0E0],"parents":[2147483647,0,0,2,2,4,4],"right_children":[2,-1,4,-1,6,-1,-1],"split_conditions":[5.4E-2,1.9076256E-2,6.606604E1,5.2161247E-4,2.2195569E2,-6.6836136E-3,-2.0716388E-3],"split_indices":[9,0,6,0,6,0,0],"split_type":[0,0,0,0,0,0,0],"sum_hessian":[1.4685398E1,1.1446221E0,1.3540775E1,4.979219E0,8.561557E0,4.2089148E0,4.352642E0],"tree_param":{"num_deleted":"0","num_feature":"11","num_nodes":"7","size_leaf_vector":"1"}},{"base_weights":[4.204601E-4,2.045048E-2,-8.944158E-3,8.782913E-3,2.5544225E-3],"categories":[],"categories_nodes":[],"categories_segments":[],"categories_sizes":[],"default_left":[0,0,0,0,0],"id":82,"left_children":[1,3,-1,-1,-1],"loss_changes":[1.0114566E-2,8.077207E-4,0E0,0E0,0E0],"parents":[2147483647,0,0,1,1],"right_children":[2,4,-1,-1,-1],"split_conditions":[6.160603E-1,2.61201E0,-8.944158E-3,8.782913E-3,2.5544225E-3],"split_indices":[8,5,0,0,0],"split_type":[0,0,0,0,0],"sum_hessian":[1.4695098E1,9.033843E0,5.6612554E0,4.3582764E0,4.6755667E0],"tree_param":{"num_deleted":"0","num_feature":"11","num_nodes":"5","size_leaf_vector":"1"}},{"base_weights":[4.5460925E-4,9.336906E-3,-1.8323578E-2,2.9259168E-3,-1.2231899E-2],"categories":[],"categories_nodes":[],"categories_segments":[],"categories_sizes":[],"default_left":[0,0,0,0,0],"id":83,"left_children":[1,-1,3,-1,-1],"loss_changes":[9.605225E-3,0E0,6.927568E-3,0E0,0E0],"parents":[2147483647,0,0,2,2],"right_children":[2,-1,4,-1,-1],"split_conditions":[6.606604E1,9.336906E-3,2.61201E0,2.9259168E-3,-1.2231899E-2],"split_indices":[6,0,5,0,0],"split_type":[0,0,0,0,0],"sum_hessian":[1.4688463E1,5.3285346E0,9.359928E0,4.4100285E0,4.9499E0],"tree_param":{"num_deleted":"0","num_feature":"11","num_nodes":"5","size_leaf_vector":"1"}},{"base_weights":[3.3009594E-4,1.9896857E-2,-8.766311E-3,-2.7513492E-4,1.0996323E-2],"categories":[],"categories_nodes":[],"categories_segments":[],"categories_sizes":[],"default_left":[0,0,0,0,0],"id":84,"left_children":[1,3,-1,-1,-1],"loss_changes":[9.65198E-3,3.53298E-3,0E0,0E0,0E0],"parents":[2147483647,0,0,1,1],"right_children":[2,4,-1,-1,-1],"split_conditions":[6.160603E-1,3.054352E0,-8.766311E-3,-2.7513492E-4,1.0996323E-2],"split_indices":[8,5,0,0,0],"split_type":[0,0,0,0,0],"sum_hessian":[1.4687063E1,9.032831E0,5.654232E0,4.450407E0,4.582424E0],"tree_param":{"num_deleted":"0","num_feature":"11","num_nodes":"5","size_leaf_vector":"1"}},{"base_weights":[3.685741E-4,9.190994E-3,-1.8170489E-2,2.313762E-3,-1.1594269E-2],"categories":[],"categories_nodes":[],"categories_segments":[],"categories_sizes":[],"default_left":[0,0,0,0,0],"id":85,"left_children":[1,-1,3,-1,-1],"loss_changes":[9.354293E-3,0E0,5.7839565E-3,0E0,0E0],"parents":[2147483647,0,0,2,2],"right_children":[2,-1,4,-1,-1],"split_conditions":[6.606604E1,9.190994E-3,2.61201E0,2.313762E-3,-1.1594269E-2],"split_indices":[6,0,5,0,0],"split_type":[0,0,0,0,0],"sum_hessian":[1.4678055E1,5.3274956E0,9.350559E0,4.405439E0,4.94512E0],"tree_param":{"num_deleted":"0","num_feature":"11","num_nodes":"5","size_leaf_vector":"1"}},{"base_weights":[2.6948657E-4,1.9431856E-2,-8.604622E-3,-6.8946515E-4,1.11436555E-2],"categories":[],"categories_nodes":[],"categories_segments":[],"categories_sizes":[],"default_left":[0,0,0,0,0],"id":86,"left_children":[1,3,-1,-1,-1],"loss_changes":[9.254667E-3,3.945903E-3,0E0,0E0,0E0],"parents":[2147483647,0,0,1,1],"right_children":[2,4,-1,-1,-1],"split_conditions":[6.160603E-1,3.054352E0,-8.604622E-3,-6.8946515E-4,1.11436555E-2],"split_indices":[8,5,0,0,0],"split_type":[0,0,0,0,0],"sum_hessian":[1.4677048E1,9.029468E0,5.6475806E0,4.4458365E0,4.583631E0],"tree_param":{"num_deleted":"0","num_feature":"11","num_nodes":"5","size_leaf_vector":"1"}},{"base_weights":[3.1149285E-4,9.044419E-3,-1.7971255E-2,1.9465558E-3,-1.1158378E-2],"categories":[],"categories_nodes":[],"categories_segments":[],"categories_sizes":[],"default_left":[0,0,0,0,0],"id":87,"left_children":[1,-1,3,-1,-1],"loss_changes":[9.088654E-3,0E0,5.1039346E-3,0E0,0E0],"parents":[2147483647,0,0,2,2],"right_children":[2,-1,4,-1,-1],"split_conditions":[6.606604E1,9.044419E-3,2.61201E0,1.9465558E-3,-1.1158378E-2],"split_indices":[6,0,5,0,0],"split_type":[0,0,0,0,0],"sum_hessian":[1.4668087E1,5.326502E0,9.341585E0,4.402416E0,4.939169E0],"tree_param":{"num_deleted":"0","num_feature":"11","num_nodes":"5","size_leaf_vector":"1"}},{"base_weights":[2.2075884E-4,1.7772468E-2,-9.368397E-3,-6.5224743E-3,-2.2965411E-3,1.4830461E-3,-2.503723E-3],"categories":[],"categories_nodes":[],"categories_segments":[],"categories_sizes":[],"default_left":[0,0,0,0,0,0,0],"id":88,"left_children":[1,-1,3,-1,5,-1,-1],"loss_changes":[9.422018E-3,0E0,1.2049251E-3,0E0,4.898852E-4,0E0,0E0],"parents":[2147483647,0,0,2,2,4,4],"right_children":[2,-1,4,-1,6,-1,-1],"split_conditions":[2.675E1,1.7772468E-2,4.1332912E0,-6.5224743E-3,4.8804317E0,1.4830461E-3,-2.503723E-3],"split_indices":[10,0,5,0,5,0,0],"split_type":[0,0,0,0,0,0,0],"sum_hessian":[1.4667231E1,1.3262501E0,1.3340981E1,4.0974855E0,9.243495E0,4.290804E0,4.9526906E0],"tree_param":{"num_deleted":"0","num_feature":"11","num_nodes":"7","size_leaf_vector":"1"}},{"base_weights":[8.079235E-4,1.9880041E-2,-8.426551E-3,1.8861706E-4,1.0538342E-2],"categories":[],"categories_nodes":[],"categories_segments":[],"categories_sizes":[],"default_left":[0,0,0,0,0],"id":89,"left_children":[1,3,-1,-1,-1],"loss_changes":[9.1973655E-3,2.9216697E-3,0E0,0E0,0E0],"parents":[2147483647,0,0,1,1],"right_children":[2,4,-1,-1,-1],"split_conditions":[6.160603E-1,3.054352E0,-8.426551E-3,1.8861706E-4,1.0538342E-2],"split_indices":[8,5,0,0,0],"split_type":[0,0,0,0,0],"sum_hessian":[1.4675402E1,9.02848E0,5.6469216E0,4.4505715E0,4.5779085E0],"tree_param":{"num_deleted":"0","num_feature":"11","num_nodes":"5","size_leaf_vector":"1"}},{"base_weights":[7.2479626E-4,9.147885E-3,-1.7559445E-2,2.6052943E-3,-1.1553089E-2],"categories":[],"categories_nodes":[],"categories_segments":[],"categories_sizes":[],"default_left":[0,0,0,0,0],"id":90,"left_children":[1,-1,3,-1,-1],"loss_changes":[9.0623405E-3,0E0,6.0194833E-3,0E0,0E0],"parents":[2147483647,0,0,2,2],"right_children":[2,-1,4,-1,-1],"split_conditions":[6.606604E1,9.147885E-3,2.61201E0,2.6052943E-3,-1.1553089E-2],"split_indices":[6,0,5,0,0],"split_type":[0,0,0,0,0],"sum_hessian":[1.4666157E1,5.326495E0,9.339662E0,4.40602E0,4.9336414E0],"tree_param":{"num_deleted":"0","num_feature":"11","num_nodes":"5","size_leaf_vector":"1"}},{"base_weights":[5.284505E-4,1.9260632E-2,-8.349527E-3,-4.109328E-4,1.0782053E-2],"categories":[],"categories_nodes":[],"categories_segments":[],"categories_sizes":[],"default_left":[0,0,0,0,0],"id":91,"left_children":[1,3,-1,-1,-1],"loss_changes":[8.857914E-3,3.4987822E-3,0E0,0E0,0E0],"parents":[2147483647,0,0,1,1],"right_children":[2,4,-1,-1,-1],"split_conditions":[6.160603E-1,3.054352E0,-8.349527E-3,-4.109328E-4,1.0782053E-2],"split_indices":[8,5,0,0,0],"split_type":[0,0,0,0,0],"sum_hessian":[1.4664718E1,9.024685E0,5.6400323E0,4.4448566E0,4.5798283E0],"tree_param":{"num_deleted":"0","num_feature":"11","num_nodes":"5","size_leaf_vector":"1"}},{"base_weights":[5.177471E-4,8.949582E-3,-1.7480453E-2,2.0997422E-3,-1.1051308E-2],"categories":[],"categories_nodes":[],"categories_segments":[],"categories_sizes":[],"default_left":[0,0,0,0,0],"id":92,"left_children":[1,-1,3,-1,-1],"loss_changes":[8.781595E-3,0E0,5.153143E-3,0E0,0E0],"parents":[2147483647,0,0,2,2],"right_children":[2,-1,4,-1,-1],"split_conditions":[6.606604E1,8.949582E-3,2.61201E0,2.0997422E-3,-1.1051308E-2],"split_indices":[6,0,5,0,0],"split_type":[0,0,0,0,0],"sum_hessian":[1.4655946E1,5.3251777E0,9.330769E0,4.4021435E0,4.9286246E0],"tree_param":{"num_deleted":"0","num_feature":"11","num_nodes":"5","size_leaf_vector":"1"}},{"base_weights":[3.664168E-4,1.878494E-2,-8.254083E-3,-7.4343226E-4,1.0845232E-2],"categories":[],"categories_nodes":[],"categories_segments":[],"categories_sizes":[],"default_left":[0,0,0,0,0],"id":93,"left_children":[1,3,-1,-1,-1],"loss_changes":[8.555737E-3,3.7899483E-3,0E0,0E0,0E0],"parents":[2147483647,0,0,1,1],"right_children":[2,4,-1,-1,-1],"split_conditions":[6.160603E-1,3.054352E0,-8.254083E-3,-7.4343226E-4,1.0845232E-2],"split_indices":[8,5,0,0,0],"split_type":[0,0,0,0,0],"sum_hessian":[1.4654834E1,9.02128E0,5.633553E0,4.440972E0,4.580309E0],"tree_param":{"num_deleted":"0","num_feature":"11","num_nodes":"5","size_leaf_vector":"1"}},{"base_weights":[3.8497758E-4,8.773167E-3,-1.7332742E-2,1.7927246E-3,-1.0696658E-2],"categories":[],"categories_nodes":[],"categories_segments":[],"categories_sizes":[],"default_left":[0,0,0,0,0],"id":94,"left_children":[1,-1,3,-1,-1],"loss_changes":[8.507015E-3,0E0,4.621471E-3,0E0,0E0],"parents":[2147483647,0,0,2,2],"right_children":[2,-1,4,-1,-1],"split_conditions":[6.606604E1,8.773167E-3,2.61201E0,1.7927246E-3,-1.0696658E-2],"split_indices":[6,0,5,0,0],"split_type":[0,0,0,0,0],"sum_hessian":[1.464623E1,5.3239493E0,9.322281E0,4.3995085E0,4.922772E0],"tree_param":{"num_deleted":"0","num_feature":"11","num_nodes":"5","size_leaf_vector":"1"}},{"base_weights":[2.7712822E-4,1.8024744E-2,-8.434512E-3,-6.9362605E-3,-3.0039338E-4,3.016416E-3,-2.8204734E-3],"categories":[],"categories_nodes":[],"categories_segments":[],"categories_sizes":[],"default_left":[0,0,0,0,0,0,0],"id":95,"left_children":[1,-1,3,-1,5,-1,-1],"loss_changes":[8.6581595E-3,0E0,1.7292007E-3,0E0,1.0714771E-3,0E0,0E0],"parents":[2147483647,0,0,2,2,4,4],"right_children":[2,-1,4,-1,6,-1,-1],"split_conditions":[5.4E-2,1.8024744E-2,4.1332912E0,-6.9362605E-3,4.8804317E0,3.016416E-3,-2.8204734E-3],"split_indices":[9,0,5,0,5,0,0],"split_type":[0,0,0,0,0,0,0],"sum_hessian":[1.4645586E1,1.1123698E0,1.35332155E1,4.1670494E0,9.366167E0,4.332257E0,5.03391E0],"tree_param":{"num_deleted":"0","num_feature":"11","num_nodes":"7","size_leaf_vector":"1"}},{"base_weights":[9.172147E-4,1.8954415E-2,-7.939674E-3,3.4561357E-4,9.886502E-3],"categories":[],"categories_nodes":[],"categories_segments":[],"categories_sizes":[],"default_left":[0,0,0,0,0],"id":96,"left_children":[1,3,-1,-1,-1],"loss_changes":[8.232323E-3,2.459202E-3,0E0,0E0,0E0],"parents":[2147483647,0,0,1,1],"right_children":[2,4,-1,-1,-1],"split_conditions":[6.160603E-1,3.054352E0,-7.939674E-3,3.4561357E-4,9.886502E-3],"split_indices":[8,5,0,0,0],"split_type":[0,0,0,0,0],"sum_hessian":[1.4652042E1,9.018985E0,5.6330576E0,4.4468737E0,4.5721116E0],"tree_param":{"num_deleted":"0","num_feature":"11","num_nodes":"5","size_leaf_vector":"1"}},{"base_weights":[7.9932326E-4,1.7916221E-2,-9.220525E-3,1.3246233E-2,-4.4695097E-3],"categories":[],"categories_nodes":[],"categories_segments":[],"categories_sizes":[],"default_left":[0,0,0,0,0],"id":97,"left_children":[1,3,-1,-1,-1],"loss_changes":[8.994418E-3,9.931705E-3,0E0,0E0,0E0],"parents":[2147483647,0,0,1,1],"right_children":[2,4,-1,-1,-1],"split_conditions":[1.6317749E-3,6.606604E1,-9.220525E-3,1.3246233E-2,-4.4695097E-3],"split_indices":[7,6,0,0,0],"split_type":[0,0,0,0,0],"sum_hessian":[1.4643226E1,9.771241E0,4.871985E0,5.2377095E0,4.533531E0],"tree_param":{"num_deleted":"0","num_feature":"11","num_nodes":"5","size_leaf_vector":"1"}},{"base_weights":[5.4532086E-4,2.0524267E-2,-8.9394655E-3,1.3847421E-3,9.723213E-3],"categories":[],"categories_nodes":[],"categories_segments":[],"categories_sizes":[],"default_left":[0,0,0,0,0],"id":98,"left_children":[1,3,-1,-1,-1],"loss_changes":[1.0093585E-2,1.7457553E-3,0E0,0E0,0E0],"parents":[2147483647,0,0,1,1],"right_children":[2,4,-1,-1,-1],"split_conditions":[6.160603E-1,3.054352E0,-8.9394655E-3,1.3847421E-3,9.723213E-3],"split_indices":[8,5,0,0,0],"split_type":[0,0,0,0,0],"sum_hessian":[1.4640875E1,9.023307E0,5.617568E0,4.452516E0,4.570791E0],"tree_param":{"num_deleted":"0","num_feature":"11","num_nodes":"5","size_leaf_vector":"1"}},{"base_weights":[5.259812E-4,1.731326E-2,-9.111554E-3,1.2176901E-2,-3.602938E-3],"categories":[],"categories_nodes":[],"categories_segments":[],"categories_sizes":[],"default_left":[0,0,0,0,0],"id":99,"left_children":[1,3,-1,-1,-1],"loss_changes":[8.634115E-3,7.835582E-3,0E0,0E0,0E0],"parents":[2147483647,0,0,1,1],"right_children":[2,4,-1,-1,-1],"split_conditions":[1.6317749E-3,6.606604E1,-9.111554E-3,1.2176901E-2,-3.602938E-3],"split_indices":[7,6,0,0,0],"split_type":[0,0,0,0,0],"sum_hessian":[1.463221E1,9.765902E0,4.866308E0,5.2300816E0,4.5358205E0],"tree_param":{"num_deleted":"0","num_feature":"11","num_nodes":"5","size_leaf_vector":"1"}},{"base_weights":[3.524604E-4,2.128341E-2,-9.439742E-3,1.9577607E-3,9.574927E-3],"categories":[],"categories_nodes":[],"categories_segments":[],"categories_sizes":[],"default_left":[0,0,0,0,0],"id":100,"left_children":[1,3,-1,-1,-1],"loss_changes":[1.1079382E-2,1.3647801E-3,0E0,0E0,0E0],"parents":[2147483647,0,0,1,1],"right_children":[2,4,-1,-1,-1],"split_conditions":[6.160603E-1,3.054352E0,-9.439742E-3,1.9577607E-3,9.574927E-3],"split_indices":[8,5,0,0,0],"split_type":[0,0,0,0,0],"sum_hessian":[1.4630469E1,9.024798E0,5.605671E0,4.4551873E0,4.569611E0],"tree_param":{"num_deleted":"0","num_feature":"11","num_nodes":"5","size_leaf_vector":"1"}},{"base_weights":[3.8917927E-4,1.692487E-2,-8.594581E-3,6.795672E-5,-1.3239268E-2,-2.0327116E-3,-5.079087E-3],"categories":[],"categories_nodes":[],"categories_segments":[],"categories_sizes":[],"default_left":[0,0,0,0,0,0,0],"id":101,"left_children":[1,-1,3,-1,5,-1,-1],"loss_changes":[8.34798E-3,0E0,5.9016084E-4,0E0,1.0965578E-4,0E0,0E0],"parents":[2147483647,0,0,2,2,4,4],"right_children":[2,-1,4,-1,6,-1,-1],"split_conditions":[2.675E1,1.692487E-2,6.606604E1,6.795672E-5,2.61201E0,-2.0327116E-3,-5.079087E-3],"split_indices":[10,0,6,0,5,0,0],"split_type":[0,0,0,0,0,0,0],"sum_hessian":[1.462206E1,1.2909945E0,1.3331065E1,4.9263206E0,8.404745E0,4.0857234E0,4.3190217E0],"tree_param":{"num_deleted":"0","num_feature":"11","num_nodes":"7","size_leaf_vector":"1"}},{"base_weights":[9.027636E-4,1.6476491E-2,-8.3378665E-3,1.1233306E-2,-3.0149128E-3],"categories":[],"categories_nodes":[],"categories_segments":[],"categories_sizes":[],"default_left":[0,0,0,0,0],"id":102,"left_children":[1,3,-1,-1,-1],"loss_changes":[7.443658E-3,6.361153E-3,0E0,0E0,0E0],"parents":[2147483647,0,0,1,1],"right_children":[2,4,-1,-1,-1],"split_conditions":[1.6317749E-3,6.606604E1,-8.3378665E-3,1.1233306E-2,-3.0149128E-3],"split_indices":[7,6,0,0,0],"split_type":[0,0,0,0,0],"sum_hessian":[1.4631586E1,9.760291E0,4.871295E0,5.2213964E0,4.538895E0],"tree_param":{"num_deleted":"0","num_feature":"11","num_nodes":"5","size_leaf_vector":"1"}},{"base_weights":[6.3669326E-4,2.3149095E-2,-1.0105865E-2,2.373504E-3,1.0175222E-2],"categories":[],"categories_nodes":[],"categories_segments":[],"categories_sizes":[],"default_left":[0,0,0,0,0],"id":103,"left_children":[1,3,-1,-1,-1],"loss_changes":[1.2856437E-2,1.3775979E-3,0E0,0E0,0E0],"parents":[2147483647,0,0,1,1],"right_children":[2,4,-1,-1,-1],"split_conditions":[6.160603E-1,3.054352E0,-1.0105865E-2,2.373504E-3,1.0175222E-2],"split_indices":[8,5,0,0,0],"split_type":[0,0,0,0,0],"sum_hessian":[1.46293125E1,9.031259E0,5.5980544E0,4.4579167E0,4.5733414E0],"tree_param":{"num_deleted":"0","num_feature":"11","num_nodes":"5","size_leaf_vector":"1"}},{"base_weights":[6.202798E-4,1.6430927E-2,-8.547406E-3,1.0953547E-2,-2.7270857E-3],"categories":[],"categories_nodes":[],"categories_segments":[],"categories_sizes":[],"default_left":[0,0,0,0,0],"id":104,"left_children":[1,3,-1,-1,-1],"loss_changes":[7.6577305E-3,5.8446703E-3,0E0,0E0,0E0],"parents":[2147483647,0,0,1,1],"right_children":[2,4,-1,-1,-1],"split_conditions":[1.6317749E-3,6.606604E1,-8.547406E-3,1.0953547E-2,-2.7270857E-3],"split_indices":[7,6,0,0,0],"split_type":[0,0,0,0,0],"sum_hessian":[1.4620251E1,9.756852E0,4.8633986E0,5.21941E0,4.5374427E0],"tree_param":{"num_deleted":"0","num_feature":"11","num_nodes":"5","size_leaf_vector":"1"}},{"base_weights":[4.1357038E-4,2.2628654E-2,-1.00356955E-2,2.4911277E-3,9.78058E-3],"categories":[],"categories_nodes":[],"categories_segments":[],"categories_sizes":[],"default_left":[0,0,0,0,0],"id":105,"left_children":[1,3,-1,-1,-1],"loss_changes":[1.2507126E-2,1.1619395E-3,0E0,0E0,0E0],"parents":[2147483647,0,0,1,1],"right_children":[2,4,-1,-1,-1],"split_conditions":[6.160603E-1,3.054352E0,-1.00356955E-2,2.4911277E-3,9.78058E-3],"split_indices":[8,5,0,0,0],"split_type":[0,0,0,0,0],"sum_hessian":[1.4618265E1,9.027977E0,5.5902877E0,4.457766E0,4.5702114E0],"tree_param":{"num_deleted":"0","num_feature":"11","num_nodes":"5","size_leaf_vector":"1"}},{"base_weights":[4.48585E-4,1.6306855E-2,-8.623548E-3,1.0725723E-2,-2.544587E-3],"categories":[],"categories_nodes":[],"categories_segments":[],"categories_sizes":[],"default_left":[0,0,0,0,0],"id":106,"left_children":[1,3,-1,-1,-1],"loss_changes":[7.695459E-3,5.48662E-3,0E0,0E0,0E0],"parents":[2147483647,0,0,1,1],"right_children":[2,4,-1,-1,-1],"split_conditions":[1.6317749E-3,6.606604E1,-8.623548E-3,1.0725723E-2,-2.544587E-3],"split_indices":[7,6,0,0,0],"split_type":[0,0,0,0,0],"sum_hessian":[1.4609729E1,9.753161E0,4.8565674E0,5.2177916E0,4.53537E0],"tree_param":{"num_deleted":"0","num_feature":"11","num_nodes":"5","size_leaf_vector":"1"}},{"base_weights":[2.9146275E-4,2.2194153E-2,-9.932475E-3,2.5418925E-3,9.4969515E-3],"categories":[],"categories_nodes":[],"categories_segments":[],"categories_sizes":[],"default_left":[0,0,0,0,0],"id":107,"left_children":[1,3,-1,-1,-1],"loss_changes":[1.2152854E-2,1.0333899E-3,0E0,0E0,0E0],"parents":[2147483647,0,0,1,1],"right_children":[2,4,-1,-1,-1],"split_conditions":[6.160603E-1,3.054352E0,-9.932475E-3,2.5418925E-3,9.4969515E-3],"split_indices":[8,5,0,0,0],"split_type":[0,0,0,0,0],"sum_hessian":[1.4608155E1,9.025173E0,5.5829825E0,4.457246E0,4.5679274E0],"tree_param":{"num_deleted":"0","num_feature":"11","num_nodes":"5","size_leaf_vector":"1"}},{"base_weights":[3.5563507E-4,1.614143E-2,-8.612567E-3,1.0526875E-2,-2.4191912E-3],"categories":[],"categories_nodes":[],"categories_segments":[],"categories_sizes":[],"default_left":[0,0,0,0,0],"id":108,"left_children":[1,3,-1,-1,-1],"loss_changes":[7.6207104E-3,5.2131508E-3,0E0,0E0,0E0],"parents":[2147483647,0,0,1,1],"right_children":[2,4,-1,-1,-1],"split_conditions":[1.6317749E-3,6.606604E1,-8.612567E-3,1.0526875E-2,-2.4191912E-3],"split_indices":[7,6,0,0,0],"split_type":[0,0,0,0,0],"sum_hessian":[1.4600028E1,9.749407E0,4.850621E0,5.2163515E0,4.533055E0],"tree_param":{"num_deleted":"0","num_feature":"11","num_nodes":"5","size_leaf_vector":"1"}},{"base_weights":[2.2698745E-4,2.1812238E-2,-9.8118335E-3,2.5462834E-3,9.286538E-3],"categories":[],"categories_nodes":[],"categories_segments":[],"categories_sizes":[],"default_left":[0,0,0,0,0],"id":109,"left_children":[1,3,-1,-1,-1],"loss_changes":[1.180205E-2,9.5828576E-4,0E0,0E0,0E0],"parents":[2147483647,0,0,1,1],"right_children":[2,4,-1,-1,-1],"split_conditions":[6.160603E-1,3.054352E0,-9.8118335E-3,2.5462834E-3,9.286538E-3],"split_indices":[8,5,0,0,0],"split_type":[0,0,0,0,0],"sum_hessian":[1.4598732E1,9.022694E0,5.5760384E0,4.4563885E0,4.5663047E0],"tree_param":{"num_deleted":"0","num_feature":"11","num_nodes":"5","size_leaf_vector":"1"}},{"base_weights":[3.015495E-4,1.6938202E-2,-8.598577E-3,-4.32819E-3,-4.5092646E-3,-1.29306E-4,-2.3963628E-3],"categories":[],"categories_nodes":[],"categories_segments":[],"categories_sizes":[],"default_left":[0,0,0,0,0,0,0],"id":110,"left_children":[1,-1,3,5,-1,-1,-1],"loss_changes":[8.278149E-3,0E0,3.284521E-4,1.3938402E-4,0E0,0E0,0E0],"parents":[2147483647,0,0,2,2,3,3],"right_children":[2,-1,4,6,-1,-1,-1],"split_conditions":[2.675E1,1.6938202E-2,1.6317749E-3,6.606604E1,-4.5092646E-3,-1.29306E-4,-2.3963628E-3],"split_indices":[10,0,7,6,0,0,0],"split_type":[0,0,0,0,0,0,0],"sum_hessian":[1.4590845E1,1.2649981E0,1.3325848E1,9.014218E0,4.311629E0,4.906791E0,4.107427E0],"tree_param":{"num_deleted":"0","num_feature":"11","num_nodes":"7","size_leaf_vector":"1"}},{"base_weights":[8.4111386E-4,1.8306624E-2,-7.7417484E-3,8.123541E-3,2.0345023E-3],"categories":[],"categories_nodes":[],"categories_segments":[],"categories_sizes":[],"default_left":[0,0,0,0,0],"id":111,"left_children":[1,3,-1,-1,-1],"loss_changes":[7.732775E-3,8.2818E-4,0E0,0E0,0E0],"parents":[2147483647,0,0,1,1],"right_children":[2,4,-1,-1,-1],"split_conditions":[6.160603E-1,2.61201E0,-7.7417484E-3,8.123541E-3,2.0345023E-3],"split_indices":[8,5,0,0,0],"split_type":[0,0,0,0,0],"sum_hessian":[1.4600171E1,9.008573E0,5.591599E0,4.348954E0,4.659618E0],"tree_param":{"num_deleted":"0","num_feature":"11","num_nodes":"5","size_leaf_vector":"1"}},{"base_weights":[7.4709096E-4,1.638864E-2,-8.434393E-3,1.2058059E-2,-4.0283427E-3],"categories":[],"categories_nodes":[],"categories_segments":[],"categories_sizes":[],"default_left":[0,0,0,0,0],"id":112,"left_children":[1,3,-1,-1,-1],"loss_changes":[7.500708E-3,8.1663765E-3,0E0,0E0,0E0],"parents":[2147483647,0,0,1,1],"right_children":[2,4,-1,-1,-1],"split_conditions":[1.6317749E-3,6.606604E1,-8.434393E-3,1.2058059E-2,-4.0283427E-3],"split_indices":[7,6,0,0,0],"split_type":[0,0,0,0,0],"sum_hessian":[1.4594347E1,9.745152E0,4.8491945E0,5.225322E0,4.5198307E0],"tree_param":{"num_deleted":"0","num_feature":"11","num_nodes":"5","size_leaf_vector":"1"}},{"base_weights":[5.2035274E-4,1.9508373E-2,-8.538456E-3,1.1972485E-3,9.357588E-3],"categories":[],"categories_nodes":[],"categories_segments":[],"categories_sizes":[],"default_left":[0,0,0,0,0],"id":113,"left_children":[1,3,-1,-1,-1],"loss_changes":[9.135946E-3,1.691032E-3,0E0,0E0,0E0],"parents":[2147483647,0,0,1,1],"right_children":[2,4,-1,-1,-1],"split_conditions":[6.160603E-1,3.054352E0,-8.538456E-3,1.1972485E-3,9.357588E-3],"split_indices":[8,5,0,0,0],"split_type":[0,0,0,0,0],"sum_hessian":[1.4592544E1,9.013835E0,5.5787077E0,4.4479156E0,4.5659194E0],"tree_param":{"num_deleted":"0","num_feature":"11","num_nodes":"5","size_leaf_vector":"1"}},{"base_weights":[4.9515074E-4,1.6044343E-2,-8.451489E-3,1.118321E-2,-3.232341E-3],"categories":[],"categories_nodes":[],"categories_segments":[],"categories_sizes":[],"default_left":[0,0,0,0,0],"id":114,"left_children":[1,3,-1,-1,-1],"loss_changes":[7.3987436E-3,6.5181404E-3,0E0,0E0,0E0],"parents":[2147483647,0,0,1,1],"right_children":[2,4,-1,-1,-1],"split_conditions":[1.6317749E-3,6.606604E1,-8.451489E-3,1.118321E-2,-3.232341E-3],"split_indices":[7,6,0,0,0],"split_type":[0,0,0,0,0],"sum_hessian":[1.458457E1,9.741165E0,4.843405E0,5.2191124E0,4.5220523E0],"tree_param":{"num_deleted":"0","num_feature":"11","num_nodes":"5","size_leaf_vector":"1"}},{"base_weights":[3.280602E-4,2.0050976E-2,-8.937486E-3,1.723824E-3,9.13788E-3],"categories":[],"categories_nodes":[],"categories_segments":[],"categories_sizes":[],"default_left":[0,0,0,0,0],"id":115,"left_children":[1,3,-1,-1,-1],"loss_changes":[9.85446E-3,1.3160817E-3,0E0,0E0,0E0],"parents":[2147483647,0,0,1,1],"right_children":[2,4,-1,-1,-1],"split_conditions":[6.160603E-1,3.054352E0,-8.937486E-3,1.723824E-3,9.13788E-3],"split_indices":[8,5,0,0,0],"split_type":[0,0,0,0,0],"sum_hessian":[1.4583101E1,9.01452E0,5.5685816E0,4.450335E0,4.5641847E0],"tree_param":{"num_deleted":"0","num_feature":"11","num_nodes":"5","size_leaf_vector":"1"}},{"base_weights":[3.5959887E-4,1.7158723E-2,-7.7661467E-3,-1.8754724E-3,-5.2112318E-3,1.7851499E-3,-3.1570205E-3],"categories":[],"categories_nodes":[],"categories_segments":[],"categories_sizes":[],"default_left":[0,0,0,0,0,0,0],"id":116,"left_children":[1,-1,3,5,-1,-1,-1],"loss_changes":[7.6375045E-3,0E0,7.8823237E-4,7.470845E-4,0E0,0E0,0E0],"parents":[2147483647,0,0,2,2,3,3],"right_children":[2,-1,4,6,-1,-1,-1],"split_conditions":[5.4E-2,1.7158723E-2,1.6317749E-3,6.606604E1,-5.2112318E-3,1.7851499E-3,-3.1570205E-3],"split_indices":[9,0,7,6,0,0,0],"split_type":[0,0,0,0,0,0,0],"sum_hessian":[1.4575474E1,1.0678045E0,1.3507669E1,9.113486E0,4.394183E0,4.947839E0,4.165647E0],"tree_param":{"num_deleted":"0","num_feature":"11","num_nodes":"7","size_leaf_vector":"1"}},{"base_weights":[9.3654846E-4,1.776963E-2,-7.441182E-3,1.7390809E-3,7.896611E-3],"categories":[],"categories_nodes":[],"categories_segments":[],"categories_sizes":[],"default_left":[0,0,0,0,0],"id":117,"left_children":[1,3,-1,-1,-1],"loss_changes":[7.1932627E-3,8.718781E-4,0E0,0E0,0E0],"parents":[2147483647,0,0,1,1],"right_children":[2,4,-1,-1,-1],"split_conditions":[6.160603E-1,3.054352E0,-7.441182E-3,1.7390809E-3,7.896611E-3],"split_indices":[8,5,0,0,0],"split_type":[0,0,0,0,0],"sum_hessian":[1.4584202E1,9.005008E0,5.5791936E0,4.4513216E0,4.5536866E0],"tree_param":{"num_deleted":"0","num_feature":"11","num_nodes":"5","size_leaf_vector":"1"}},{"base_weights":[8.042251E-4,1.8204497E-2,-9.417664E-3,1.1839116E-2,-2.7134847E-3],"categories":[],"categories_nodes":[],"categories_segments":[],"categories_sizes":[],"default_left":[0,0,0,0,0],"id":118,"left_children":[1,3,-1,-1,-1],"loss_changes":[9.298046E-3,6.5814834E-3,0E0,0E0,0E0],"parents":[2147483647,0,0,1,1],"right_children":[2,4,-1,-1,-1],"split_conditions":[1.6317749E-3,6.606604E1,-9.417664E-3,1.1839116E-2,-2.7134847E-3],"split_indices":[7,6,0,0,0],"split_type":[0,0,0,0,0],"sum_hessian":[1.4576847E1,9.74489E0,4.831957E0,5.222337E0,4.5225534E0],"tree_param":{"num_deleted":"0","num_feature":"11","num_nodes":"5","size_leaf_vector":"1"}},{"base_weights":[5.5540196E-4,1.8960353E-2,-8.27471E-3,2.0144342E-3,8.268934E-3],"categories":[],"categories_nodes":[],"categories_segments":[],"categories_sizes":[],"default_left":[0,0,0,0,0],"id":119,"left_children":[1,3,-1,-1,-1],"loss_changes":[8.588897E-3,8.692881E-4,0E0,0E0,0E0],"parents":[2147483647,0,0,1,1],"right_children":[2,4,-1,-1,-1],"split_conditions":[6.160603E-1,3.054352E0,-8.27471E-3,2.0144342E-3,8.268934E-3],"split_indices":[8,5,0,0,0],"split_type":[0,0,0,0,0],"sum_hessian":[1.4575068E1,9.008656E0,5.5664134E0,4.4520025E0,4.556653E0],"tree_param":{"num_deleted":"0","num_feature":"11","num_nodes":"5","size_leaf_vector":"1"}},{"base_weights":[5.265257E-4,1.6952049E-2,-8.944861E-3,1.095311E-2,-2.4407355E-3],"categories":[],"categories_nodes":[],"categories_segments":[],"categories_sizes":[],"default_left":[0,0,0,0,0],"id":120,"left_children":[1,3,-1,-1,-1],"loss_changes":[8.264383E-3,5.565806E-3,0E0,0E0,0E0],"parents":[2147483647,0,0,1,1],"right_children":[2,4,-1,-1,-1],"split_conditions":[1.6317749E-3,6.606604E1,-8.944861E-3,1.095311E-2,-2.4407355E-3],"split_indices":[7,6,0,0,0],"split_type":[0,0,0,0,0],"sum_hessian":[1.45678425E1,9.737776E0,4.830066E0,5.2160645E0,4.521712E0],"tree_param":{"num_deleted":"0","num_feature":"11","num_nodes":"5","size_leaf_vector":"1"}},{"base_weights":[3.5061405E-4,1.9521762E-2,-8.691365E-3,2.1566749E-3,8.432111E-3],"categories":[],"categories_nodes":[],"categories_segments":[],"categories_sizes":[],"default_left":[0,0,0,0,0],"id":121,"left_children":[1,3,-1,-1,-1],"loss_changes":[9.316003E-3,8.577949E-4,0E0,0E0,0E0],"parents":[2147483647,0,0,1,1],"right_children":[2,4,-1,-1,-1],"split_conditions":[6.160603E-1,3.054352E0,-8.691365E-3,2.1566749E-3,8.432111E-3],"split_indices":[8,5,0,0,0],"split_type":[0,0,0,0,0],"sum_hessian":[1.4566479E1,9.009879E0,5.5565996E0,4.4519515E0,4.557928E0],"tree_param":{"num_deleted":"0","num_feature":"11","num_nodes":"5","size_leaf_vector":"1"}},{"base_weights":[3.742383E-4,1.6158992E-2,-8.628627E-3,1.03910845E-2,-2.2687057E-3],"categories":[],"categories_nodes":[],"categories_segments":[],"categories_sizes":[],"default_left":[0,0,0,0,0],"id":122,"left_children":[1,3,-1,-1,-1],"loss_changes":[7.6206634E-3,4.9661184E-3,0E0,0E0,0E0],"parents":[2147483647,0,0,1,1],"right_children":[2,4,-1,-1,-1],"split_conditions":[1.6317749E-3,6.606604E1,-8.628627E-3,1.03910845E-2,-2.2687057E-3],"split_indices":[7,6,0,0,0],"split_type":[0,0,0,0,0],"sum_hessian":[1.4559348E1,9.732251E0,4.827096E0,5.2120886E0,4.5201626E0],"tree_param":{"num_deleted":"0","num_feature":"11","num_nodes":"5","size_leaf_vector":"1"}},{"base_weights":[2.4288827E-4,1.9729072E-2,-8.87396E-3,2.2207836E-3,8.480723E-3],"categories":[],"categories_nodes":[],"categories_segments":[],"categories_sizes":[],"default_left":[0,0,0,0,0],"id":123,"left_children":[1,3,-1,-1,-1],"loss_changes":[9.6250065E-3,8.4444415E-4,0E0,0E0,0E0],"parents":[2147483647,0,0,1,1],"right_children":[2,4,-1,-1,-1],"split_conditions":[6.160603E-1,3.054352E0,-8.87396E-3,2.2207836E-3,8.480723E-3],"split_indices":[8,5,0,0,0],"split_type":[0,0,0,0,0],"sum_hessian":[1.4558306E1,9.009775E0,5.548531E0,4.451454E0,4.558321E0],"tree_param":{"num_deleted":"0","num_feature":"11","num_nodes":"5","size_leaf_vector":"1"}},{"base_weights":[2.9581695E-4,1.6271705E-2,-8.132577E-3,-3.8047736E-3,-4.4294572E-3,-9.727327E-5,-2.1256597E-3],"categories":[],"categories_nodes":[],"categories_segments":[],"categories_sizes":[],"default_left":[0,0,0,0,0,0,0],"id":124,"left_children":[1,-1,3,5,-1,-1,-1],"loss_changes":[7.5115836E-3,0E0,3.5483728E-4,1.1203061E-4,0E0,0E0,0E0],"parents":[2147483647,0,0,2,2,3,3],"right_children":[2,-1,4,6,-1,-1,-1],"split_conditions":[2.675E1,1.6271705E-2,1.6317749E-3,6.606604E1,-4.4294572E-3,-9.727327E-5,-2.1256597E-3],"split_indices":[10,0,7,6,0,0,0],"split_type":[0,0,0,0,0,0,0],"sum_hessian":[1.4551325E1,1.2318697E0,1.3319455E1,9.012286E0,4.307169E0,4.9061866E0,4.1060996E0],"tree_param":{"num_deleted":"0","num_feature":"11","num_nodes":"7","size_leaf_vector":"1"}},{"base_weights":[8.277718E-4,1.5406301E-2,-7.838118E-3,9.804952E-3,-2.0411303E-3],"categories":[],"categories_nodes":[],"categories_segments":[],"categories_sizes":[],"default_left":[0,0,0,0,0],"id":125,"left_children":[1,3,-1,-1,-1],"loss_changes":[6.517154E-3,4.3387786E-3,0E0,0E0,0E0],"parents":[2147483647,0,0,1,1],"right_children":[2,4,-1,-1,-1],"split_conditions":[1.6317749E-3,6.606604E1,-7.838118E-3,9.804952E-3,-2.0411303E-3],"split_indices":[7,6,0,0,0],"split_type":[0,0,0,0,0],"sum_hessian":[1.4560375E1,9.727626E0,4.83275E0,5.206231E0,4.5213947E0],"tree_param":{"num_deleted":"0","num_feature":"11","num_nodes":"5","size_leaf_vector":"1"}},{"base_weights":[5.8028597E-4,2.1148205E-2,-9.2964135E-3,2.3758034E-3,9.094238E-3],"categories":[],"categories_nodes":[],"categories_segments":[],"categories_sizes":[],"default_left":[0,0,0,0,0],"id":126,"left_children":[1,3,-1,-1,-1],"loss_changes":[1.07574705E-2,9.743045E-4,0E0,0E0,0E0],"parents":[2147483647,0,0,1,1],"right_children":[2,4,-1,-1,-1],"split_conditions":[6.160603E-1,3.054352E0,-9.2964135E-3,2.3758034E-3,9.094238E-3],"split_indices":[8,5,0,0,0],"split_type":[0,0,0,0,0],"sum_hessian":[1.4558614E1,9.015057E0,5.5435567E0,4.452669E0,4.5623875E0],"tree_param":{"num_deleted":"0","num_feature":"11","num_nodes":"5","size_leaf_vector":"1"}},{"base_weights":[5.535046E-4,1.5212351E-2,-7.956521E-3,9.676784E-3,-2.012228E-3],"categories":[],"categories_nodes":[],"categories_segments":[],"categories_sizes":[],"default_left":[0,0,0,0,0],"id":127,"left_children":[1,3,-1,-1,-1],"loss_changes":[6.575462E-3,4.222828E-3,0E0,0E0,0E0],"parents":[2147483647,0,0,1,1],"right_children":[2,4,-1,-1,-1],"split_conditions":[1.6317749E-3,6.606604E1,-7.956521E-3,9.676784E-3,-2.012228E-3],"split_indices":[7,6,0,0,0],"split_type":[0,0,0,0,0],"sum_hessian":[1.4550849E1,9.7242E0,4.8266487E0,5.2053022E0,4.518898E0],"tree_param":{"num_deleted":"0","num_feature":"11","num_nodes":"5","size_leaf_vector":"1"}},{"base_weights":[3.7846545E-4,2.0534532E-2,-9.163587E-3,2.3209928E-3,8.816742E-3],"categories":[],"categories_nodes":[],"categories_segments":[],"categories_sizes":[],"default_left":[0,0,0,0,0],"id":128,"left_children":[1,3,-1,-1,-1],"loss_changes":[1.0319298E-2,9.0715615E-4,0E0,0E0,0E0],"parents":[2147483647,0,0,1,1],"right_children":[2,4,-1,-1,-1],"split_conditions":[6.160603E-1,3.054352E0,-9.163587E-3,2.3209928E-3,8.816742E-3],"split_indices":[8,5,0,0,0],"split_type":[0,0,0,0,0],"sum_hessian":[1.4549567E1,9.011708E0,5.5378585E0,4.4515142E0,4.560194E0],"tree_param":{"num_deleted":"0","num_feature":"11","num_nodes":"5","size_leaf_vector":"1"}},{"base_weights":[4.041494E-4,1.5024829E-2,-7.977286E-3,9.55163E-3,-1.982945E-3],"categories":[],"categories_nodes":[],"categories_segments":[],"categories_sizes":[],"default_left":[0,0,0,0,0],"id":129,"left_children":[1,3,-1,-1,-1],"loss_changes":[6.5338835E-3,4.1103186E-3,0E0,0E0,0E0],"parents":[2147483647,0,0,1,1],"right_children":[2,4,-1,-1,-1],"split_conditions":[1.6317749E-3,6.606604E1,-7.977286E-3,9.55163E-3,-1.982945E-3],"split_indices":[7,6,0,0,0],"split_type":[0,0,0,0,0],"sum_hessian":[1.4542349E1,9.720891E0,4.821458E0,5.204454E0,4.5164366E0],"tree_param":{"num_deleted":"0","num_feature":"11","num_nodes":"5","size_leaf_vector":"1"}},{"base_weights":[2.7080846E-4,2.0079764E-2,-9.036873E-3,2.2748918E-3,8.616277E-3],"categories":[],"categories_nodes":[],"categories_segments":[],"categories_sizes":[],"default_left":[0,0,0,0,0],"id":130,"left_children":[1,3,-1,-1,-1],"loss_changes":[9.961827E-3,8.6305896E-4,0E0,0E0,0E0],"parents":[2147483647,0,0,1,1],"right_children":[2,4,-1,-1,-1],"split_conditions":[6.160603E-1,3.054352E0,-9.036873E-3,2.2748918E-3,8.616277E-3],"split_indices":[8,5,0,0,0],"split_type":[0,0,0,0,0],"sum_hessian":[1.4541383E1,9.009094E0,5.532288E0,4.450438E0,4.558656E0],"tree_param":{"num_deleted":"0","num_feature":"11","num_nodes":"5","size_leaf_vector":"1"}},{"base_weights":[3.0923478E-4,1.6346652E-2,-7.335308E-3,-1.9998963E-3,-4.7950447E-3,8.991291E-4,-2.2077654E-3],"categories":[],"categories_nodes":[],"categories_segments":[],"categories_sizes":[],"default_left":[0,0,0,0,0,0,0],"id":131,"left_children":[1,-1,3,5,-1,-1,-1],"loss_changes":[6.833661E-3,0E0,6.3684914E-4,2.9273675E-4,0E0,0E0,0E0],"parents":[2147483647,0,0,2,2,3,3],"right_children":[2,-1,4,6,-1,-1,-1],"split_conditions":[5.4E-2,1.6346652E-2,1.6317749E-3,6.606604E1,-4.7950447E-3,8.991291E-4,-2.2077654E-3],"split_indices":[9,0,7,6,0,0,0],"split_type":[0,0,0,0,0,0,0],"sum_hessian":[1.4534297E1,1.0394605E0,1.3494837E1,9.107375E0,4.3874617E0,4.9410987E0,4.166276E0],"tree_param":{"num_deleted":"0","num_feature":"11","num_nodes":"7","size_leaf_vector":"1"}},{"base_weights":[8.7960047E-4,1.727864E-2,-7.292414E-3,7.866317E-3,1.7303453E-3],"categories":[],"categories_nodes":[],"categories_segments":[],"categories_sizes":[],"default_left":[0,0,0,0,0],"id":132,"left_children":[1,3,-1,-1,-1],"loss_changes":[6.839919E-3,8.7791425E-4,0E0,0E0,0E0],"parents":[2147483647,0,0,1,1],"right_children":[2,4,-1,-1,-1],"split_conditions":[6.160603E-1,2.61201E0,-7.292414E-3,7.866317E-3,1.7303453E-3],"split_indices":[8,5,0,0,0],"split_type":[0,0,0,0,0],"sum_hessian":[1.454257E1,8.998123E0,5.5444465E0,4.344816E0,4.6533074E0],"tree_param":{"num_deleted":"0","num_feature":"11","num_nodes":"5","size_leaf_vector":"1"}},{"base_weights":[7.693253E-4,1.483277E-2,-7.5746984E-3,1.0824454E-2,-3.5538608E-3],"categories":[],"categories_nodes":[],"categories_segments":[],"categories_sizes":[],"default_left":[0,0,0,0,0],"id":133,"left_children":[1,3,-1,-1,-1],"loss_changes":[6.059775E-3,6.502144E-3,0E0,0E0,0E0],"parents":[2147483647,0,0,1,1],"right_children":[2,4,-1,-1,-1],"split_conditions":[1.6317749E-3,6.606604E1,-7.5746984E-3,1.0824454E-2,-3.5538608E-3],"split_indices":[7,6,0,0,0],"split_type":[0,0,0,0,0],"sum_hessian":[1.4537445E1,9.7157755E0,4.8216696E0,5.2121067E0,4.5036683E0],"tree_param":{"num_deleted":"0","num_feature":"11","num_nodes":"5","size_leaf_vector":"1"}},{"base_weights":[5.3291785E-4,1.8122835E-2,-7.942514E-3,9.6031E-4,8.840656E-3],"categories":[],"categories_nodes":[],"categories_segments":[],"categories_sizes":[],"default_left":[0,0,0,0,0],"id":134,"left_children":[1,3,-1,-1,-1],"loss_changes":[7.860363E-3,1.5990282E-3,0E0,0E0,0E0],"parents":[2147483647,0,0,1,1],"right_children":[2,4,-1,-1,-1],"split_conditions":[6.160603E-1,3.054352E0,-7.942514E-3,9.6031E-4,8.840656E-3],"split_indices":[8,5,0,0,0],"split_type":[0,0,0,0,0],"sum_hessian":[1.4535805E1,9.001944E0,5.533861E0,4.442062E0,4.559882E0],"tree_param":{"num_deleted":"0","num_feature":"11","num_nodes":"5","size_leaf_vector":"1"}},{"base_weights":[4.9941445E-4,1.4665123E-2,-7.7037322E-3,1.0105893E-2,-2.8326837E-3],"categories":[],"categories_nodes":[],"categories_segments":[],"categories_sizes":[],"default_left":[0,0,0,0,0],"id":135,"left_children":[1,3,-1,-1,-1],"loss_changes":[6.1352383E-3,5.230445E-3,0E0,0E0,0E0],"parents":[2147483647,0,0,1,1],"right_children":[2,4,-1,-1,-1],"split_conditions":[1.6317749E-3,6.606604E1,-7.7037322E-3,1.0105893E-2,-2.8326837E-3],"split_indices":[7,6,0,0,0],"split_type":[0,0,0,0,0],"sum_hessian":[1.4528782E1,9.712799E0,4.8159823E0,5.2070203E0,4.505779E0],"tree_param":{"num_deleted":"0","num_feature":"11","num_nodes":"5","size_leaf_vector":"1"}},{"base_weights":[3.3019908E-4,1.8486798E-2,-8.264959E-3,1.4491262E-3,8.561507E-3],"categories":[],